<Nnet> 
<AffineTransform> 128 440 
<LearnRateCoef> 1 <BiasLearnRateCoef> 1 <MaxNorm> 0  [
  0.002992265 0.1191801 0.03596424 0.03483934 0.06971266 0.1639183 0.04511853 0.1042442 0.0833087 0.1121124 0.2189058 0.169564 0.2276946 0.2265229 0.1069996 0.1158018 -0.05204676 -0.09971504 -0.1015554 -0.08340692 -0.1883973 -0.1360635 -0.03661503 -0.1384185 -0.08246803 0.008308711 0.05940785 -0.04300774 0.009468066 0.03354022 0.06320664 0.04552566 0.06459277 0.05759798 -0.06674641 0.05503343 0.2607199 0.2123577 0.1371769 0.1086705 -0.02564991 -0.02832258 -0.1482024 -0.09212951 0.104528 -0.007806559 -0.1090622 0.0402426 0.13704 0.1124569 0.02854608 -0.05857245 -0.0008869281 0.02905835 -0.06256536 -0.144951 -0.1215299 -0.07085536 -0.02837066 0.05860068 0.07120074 0.05566514 0.2020712 0.06333372 0.1234395 0.1494249 0.2131546 0.1493115 0.08523186 0.1504543 0.1312551 0.2003434 0.1522773 0.03103554 -0.01658393 0.1173186 0.1684344 0.05869133 0.009407622 0.02174349 0.0268372 -0.126482 -0.08261377 -0.03429787 0.01876171 -0.1562357 -0.240988 -0.1754295 -0.08607557 -0.1133576 -0.1946024 -0.2141367 -0.1913589 -0.2500398 -0.18508 -0.1483152 -0.08977757 -0.06478862 -0.04619139 0.1087135 0.1545644 0.1099491 0.1803516 0.05366405 0.04015703 -0.1100265 -0.08163328 0.01029417 -0.03897152 -0.1166183 -0.172373 -0.005900835 0.07275485 -0.06296057 -0.01500724 0.06927378 -0.0481608 -0.1716413 -0.178114 -0.1548831 0.1078142 -0.02568747 0.04486889 0.02542672 0.0553722 0.09842575 -0.02387202 -0.1756181 -0.2208538 -0.1792819 -0.1273453 -0.08560129 -0.1026592 -0.006775245 0.02420281 0.006948583 0.005132364 -0.1051961 -0.08075088 -0.09894647 -0.1092177 -0.08266676 -0.07897674 -0.05316766 -0.09171368 -0.1672458 -0.1896869 -0.1762961 -0.1895393 -0.3502486 -0.3117503 -0.1378229 -0.016018 -0.1148323 -0.1010212 -0.2330473 -0.3014257 -0.3411974 -0.3328312 -0.2748068 0.1108159 -0.08289045 0.07623916 -0.02404162 0.05592991 0.120414 0.03667503 -0.001133007 -0.02623782 0.0161533 0.07224259 0.1004606 0.04743126 0.1706076 0.202362 0.1655344 0.09863388 0.0976457 0.02797552 -0.2152695 -0.2735408 -0.1970773 -0.08348562 0.0001667378 0.02960209 0.1549825 0.06342974 -0.06943737 0.0532323 0.07374088 -0.05479486 0.02377191 0.02793017 -0.05179188 0.03237132 -0.001008954 0.03843018 0.02064914 -0.0152903 -0.06029557 0.007884282 -0.1487476 0.06978697 0.048433 0.02634607 -0.02708164 0.04809606 0.2084938 0.1381584 0.1688254 0.1900032 0.0603368 0.01534882 0.07153117 0.06402449 -0.05040418 -0.01564818 0.1628565 0.08244808 0.02049637 0.001675251 -0.0342093 0.00278003 0.01142084 0.04636399 0.1716211 0.1153978 -0.02384153 0.2647375 0.2857248 0.1599936 0.1065035 0.03351515 -0.05521958 -0.09184816 -0.07053439 0.02944762 0.1269639 0.1795232 0.01229382 0.05255074 -0.05034148 0.1688551 0.01858233 -0.08212718 -0.1068451 0.025724 -0.006398438 0.01054696 0.1263247 0.02923488 -0.0173305 -0.1035658 -0.07611632 -0.04732508 -0.1061342 -0.03520145 0.1595136 0.01827458 0.106014 0.08179231 -0.01572882 0.03962959 -0.01708462 0.03711344 -0.0001678995 -0.0400615 -0.05038005 0.1246758 0.1314195 0.08179189 -0.08392167 -0.03817622 -0.105518 -0.1376843 -0.05227761 0.02812187 0.03452555 0.06691888 0.01849274 0.1054424 -0.008308673 0.08524099 0.02097441 -0.02106431 0.04242906 0.04594873 -0.1195497 0.007343181 -0.01231857 -0.0677963 -0.01554987 -0.01047885 -0.09835682 -0.02852774 -0.06565754 -0.0287504 0.07685586 0.08077303 0.06183531 0.04086229 -0.01754426 -0.01688793 -0.037365 0.03183598 -0.03144017 -0.06877629 0.0008848384 -0.02897877 0.003485729 -0.04976971 -0.05113342 0.07131831 -0.02896615 -0.05217748 0.03676219 0.04160115 0.07573601 0.09506398 0.04302379 0.008527557 -0.004892292 0.02876897 -0.02257208 -0.04228664 0.08286968 0.04676272 -0.1619438 -0.06040854 0.01684248 -0.04893484 -0.07531585 0.05810466 -0.0138134 -0.0002441807 -0.1217425 0.03811369 -0.01525907 0.03482818 0.01153487 0.01073211 -0.02715774 -0.05920959 -0.1001078 0.02176894 -0.03877513 -0.1112113 -0.04229821 -0.0305324 0.07911164 0.09039783 0.04869733 0.163652 -0.02742566 -0.06051782 -0.001604691 0.05230029 0.0745308 0.09432672 -0.01801909 0.0385881 -0.029135 -0.001076042 -0.09886524 -0.09399521 0.0285144 0.04919652 -0.03747857 0.009831296 0.02805496 -0.03430285 -0.05012782 0.08717114 -0.09993464 -0.04621669 -0.05512163 0.02751756 0.09355952 0.1170074 0.009560613 0.04784583 -0.008742458 -0.1012615 -0.09303169 0.0231306 0.06040573 -0.05168276 -0.08720125 0.0006759723 0.08075755 0.05484659 0.002677277 0.028947 -0.07806239 0.0156892 -0.04450977 -0.007256121 -0.0394435 -0.005401522 -0.01624373 0.07554116 0.02307852 0.1409108 0.02127536 -0.09035886 0.03241428 0.1038015 0.06594039 -0.05077631 0.05654485 -0.01910191 0.003647959 0.09396202 -0.04540614 -0.05086847 -0.121512 -0.04776635 0.09246136 0.1019016 -0.002130764 0.01664573 -0.08452999 -0.07171717 0.09631538 0.1042584 0.05737326 0.02596355 -0.05448496 -0.03141714 0.05007537 0.03289541 -0.03468031 -0.1056361 -0.1543857 -0.01283337 0.006554131 0.04038097 0.006577549 -0.02755203 -0.07820925 
  0.07945678 0.0369819 0.07677723 0.03749726 0.09119295 0.09706937 0.1831722 -0.02067137 -0.03279284 -0.03861702 0.005724114 -0.1389445 -0.03932486 -0.1554112 -0.2861939 -0.2380902 -0.07167752 0.05195409 0.1187464 0.1825219 0.1711079 0.1254599 0.1380097 0.08978232 -0.1098589 -0.1350944 -0.02263648 0.1062631 0.1150908 0.04898022 0.003788097 0.1218441 0.1944872 0.1022823 0.1223425 0.02612572 -0.07695764 -0.1736748 -0.0899778 0.03979949 0.01054242 -0.04606085 -0.1406375 -0.175795 -0.114963 -0.0717833 0.1589556 0.1041932 -0.02800966 -0.1179671 -0.2208558 -0.1492018 0.06555591 -0.02548952 -0.169831 -0.1828771 -0.02763852 0.07425623 0.02916657 0.02922354 0.05319444 0.02215173 0.04948419 0.05871392 -0.08526365 -0.0777321 -0.07517051 0.06978519 0.1536945 0.00097652 -0.1483318 0.009361802 0.1280406 0.06498288 0.04207139 0.06424848 0.1100401 0.03983771 -0.01159279 0.1430721 0.003892106 -0.1288636 -0.3046111 -0.3065524 -0.1595395 -0.2158004 -0.06077615 0.0677616 0.04959761 -0.1033561 -0.2009193 0.05095176 0.2085316 0.1991407 0.02944134 0.03995085 0.1070084 0.04762032 0.02319215 0.00251018 -0.01069053 -0.07807948 0.0259993 0.0998053 -0.02689789 -0.05214241 -0.09925209 -0.04536328 0.0776662 0.06408902 -0.09573217 -0.00729679 0.1190521 0.06857176 0.01136893 0.02835696 0.06585889 0.07265071 0.03693649 0.2673045 0.06645411 -0.06932302 -0.2267485 -0.243151 -0.1446814 -0.2994858 -0.1351494 0.01935592 0.00688857 -0.1170608 -0.1196906 0.08280464 0.2601984 0.3182576 0.238884 0.2306058 0.08191833 -0.001915347 0.04577528 0.00733787 0.02038777 -0.1309011 -0.07205605 0.06869671 0.0330058 -0.107727 -0.1734127 -0.1280209 0.01819402 0.1170186 0.05739857 -0.01771703 0.08777636 -0.04983579 -0.04932148 -0.100139 -0.06093324 0.05456599 0.09254978 0.1424974 0.1503129 -0.05120697 -0.06835692 -0.04690016 0.01042765 -0.2345068 -0.1878583 0.008719506 -0.09066819 -0.215935 -0.1976686 -0.07108076 0.1182995 0.2121814 0.2055837 0.1080465 0.04421008 -0.1069013 -0.03833981 -0.02259412 0.001292265 -0.1753563 -0.07214671 0.05793606 0.06484772 -0.1205911 -0.1128564 -0.1512459 -0.07253514 0.08614651 0.01821877 0.006665121 0.08813538 -0.1261046 -0.177412 -0.2056149 -0.1556584 0.002135768 0.02561664 -0.04859434 0.1133236 -0.1041801 -0.02926762 0.0725717 0.02201182 -0.2181759 -0.2338218 -0.05125992 -0.1380061 -0.102953 -0.1851595 -0.06155437 0.03872392 0.1334426 0.1543438 0.1170929 0.08796267 0.01710727 0.06178674 0.06994255 0.1310924 -0.05976935 0.01637294 0.04320835 0.1207416 0.01278065 0.04195553 -0.006388808 0.01065467 0.08306181 0.01232428 0.02690534 0.09094619 -0.1073768 -0.1230198 -0.185003 -0.1229921 -0.003456553 -0.03280276 -0.1005409 0.1380297 -0.03854942 0.03852027 0.1935351 0.2235106 -0.1085428 -0.2024196 0.03589865 -0.03744699 -0.008187262 -0.1394042 -0.1250526 0.02364253 0.1343623 0.1709054 0.08742606 0.03659781 -0.0157015 0.0797938 0.04269003 0.1514342 0.05267603 -0.0004289651 0.04768288 0.00352461 0.02517427 0.1097338 0.009284276 0.002362828 -0.0262441 -0.09003733 -0.02017157 -0.009564573 -0.05507798 -0.08798026 -0.04858268 -0.02109463 0.02728364 -0.01676581 -0.04765249 -0.06750705 -0.2160755 -0.06589781 0.1311759 0.2171641 -0.1377603 -0.2120919 -0.04670833 -0.09679914 -0.1022555 -0.1081885 -0.1859566 0.001554919 0.09499979 -0.02692239 0.02307324 0.02217347 0.009384175 0.104231 0.02677774 0.1477942 0.03123439 -0.05984867 -0.004368067 -0.0792013 0.02114806 0.1039874 0.09265944 0.0259407 -0.06165442 -0.08181672 -0.01842561 -0.04495642 -0.08442599 -0.03328402 0.09869555 0.1140326 0.2150305 0.1149559 0.06556777 -0.1732329 -0.2157618 -0.1080218 -0.005447917 0.1135793 -0.1166368 -0.08958096 -0.003981268 -0.09527468 -0.1255668 -0.05660959 -0.09669197 0.1029117 0.01208068 -0.1154265 0.05156604 0.09004142 0.03482294 0.1104144 0.1429424 0.1686502 0.04048318 -0.07604551 0.0007251333 -0.03413155 -0.03579376 0.05017579 -0.03689921 -0.02485038 -0.03724931 -0.1144693 -0.05954078 -0.05125125 -0.06144607 -0.09961834 0.04914139 0.09708118 0.1833692 0.01102622 -0.03493433 -0.0193479 -0.0150315 0.01573405 0.08942034 0.2071912 -0.06595203 0.01416154 0.05800574 0.001686884 -0.06650607 -0.01737632 0.02341495 0.07724041 -0.003332953 -0.1125069 0.07162681 0.05387718 0.0566056 -0.01405429 -0.02508045 0.05077281 0.001306546 -0.01101929 0.1039253 -0.02280045 0.05142164 0.09890625 -0.01735727 0.003123532 -0.07031207 -0.1538952 -0.02425101 0.003182855 0.04498387 -0.09499981 -0.02595714 0.02491071 0.06087207 -0.09969912 -0.1095056 -0.02701058 0.09664257 0.1312068 0.2030118 0.2185552 -0.07029803 0.02777305 0.06129708 0.0360133 -0.03409058 0.05470284 0.0875442 0.03922403 -0.05629484 -0.1502393 -0.0737536 -0.09602071 -0.05817584 -0.2247351 -0.07237072 -0.1326016 -0.1418308 -0.07449897 0.1222405 0.04093746 0.02110058 0.06376926 0.08529895 0.07222249 0.02118038 -0.1102078 0.05582922 0.1099904 0.1289556 0.03919365 0.01898133 0.07987927 0.06101371 -0.1106085 -0.1538871 
  0.03247621 0.2417066 -0.09019498 0.1615677 0.1621956 -0.1007723 -0.07524954 -0.1121953 -0.1965296 -0.09616529 -0.02123594 0.09254816 -0.0180181 0.176499 0.1399387 0.07402522 0.1978274 0.1283651 0.02964904 -0.04331592 -0.008691002 -0.1355781 -0.08698759 0.04058147 0.003208851 0.08573247 0.3086895 0.03717059 -0.1362986 -0.1726186 -0.108347 -0.1127301 -0.06355935 0.01817648 0.04865123 -0.03333179 -0.002617158 0.02698713 0.016914 0.1797735 0.00748397 0.07768907 -0.04310665 0.1495414 0.1217013 0.06158587 0.06907097 -0.03752387 -0.1220616 -0.11374 0.01225998 0.0900683 -0.1233175 0.05327751 -0.04405534 -0.03736528 0.06545865 0.04352332 0.08697108 -0.001759943 0.01160675 -0.01954724 0.02417633 0.02849355 0.01956123 0.09400667 0.1663578 0.02834691 -0.02235923 -0.05144863 -0.02968256 -0.04239819 -0.02380116 0.01552636 0.03672225 -0.01602687 0.02454543 -0.06106488 -0.03191484 0.06250154 0.00377408 -0.03288489 -0.06315881 0.07330705 0.1283566 0.1630137 0.1163535 0.03298985 -0.05428873 -0.06278812 0.03444408 -0.04831231 -0.1268737 0.003487709 -0.02583824 -0.01084765 0.04999837 -0.04578147 0.07661062 -0.07989217 -0.07495186 -0.06058475 -0.01075563 -0.005007353 0.0300946 0.01360204 0.06870423 -0.01263077 -0.08914328 -0.01533123 0.04482264 -0.0827458 -0.02299954 -0.01143621 0.08346203 -0.04636435 0.03957073 0.02602017 0.0244948 0.06762638 0.09156375 -0.1806455 -0.1404594 0.005117374 0.09791832 0.05460095 0.1010196 0.08324774 0.005443437 -0.05729816 -0.04451424 -0.0309214 -0.00925683 -0.0314935 -0.02457502 0.07617815 0.1277375 -0.06446477 -0.027551 -0.05916182 -0.1279181 -0.07855146 -0.02240398 -0.08619272 -0.01406717 -0.007733054 -0.02169941 -0.005394158 -0.04286284 0.04690794 0.1454005 -0.04626333 -0.0179077 0.02480813 0.1189139 0.03015581 0.04229729 -0.03669978 0.01019347 0.02499072 0.06070527 -0.279843 -0.1875184 -0.06679971 0.04962439 0.01005129 -0.01722681 7.28207e-05 0.03077598 -0.05597254 -0.08482564 -0.05195753 -0.06625821 -0.08090513 0.0010679 0.1178885 0.230304 0.04538888 0.003518424 -0.04395129 -0.01112713 -0.05657031 0.006441368 -0.1025624 -0.0206464 0.01767706 -0.06179835 -0.01723362 0.007880921 -0.03489842 0.09147014 -0.1103873 -0.0215365 0.02707016 0.02619378 0.08285532 -0.02163858 -0.1389927 -0.09255302 -0.1192474 0.1343575 -0.1691862 -0.08357019 -0.01162647 0.1204445 0.1123878 -0.00225405 -0.05631467 -0.08548065 -0.1250193 -0.2107183 -0.2120424 -0.1643874 -0.1387978 0.01869326 0.1349187 0.2938313 0.1608104 0.0493295 0.001763506 0.0325116 -0.01324839 0.03522866 -0.05859545 0.06435278 0.01685293 -0.1490381 -0.1452317 -0.01931434 -0.1478673 -0.1621817 -0.2073755 -0.1460276 -0.09145766 -0.1189783 -0.01224386 -0.0747333 -0.1807879 -0.07142811 -0.1119756 0.2020899 -0.0355645 -0.03291945 0.07253812 0.2740378 0.1975385 0.1572792 0.1470454 0.04099711 -0.0001698425 -0.04762256 -0.1450143 -0.1060114 -0.1190028 -0.06517597 0.01329261 0.07580671 0.03781861 0.08954135 0.03436475 -0.04091071 -0.01841704 -0.007180223 -0.04930533 0.1194836 0.112847 -0.08612297 -0.1163049 0.01081069 -0.07259139 -0.003812016 0.008154297 0.02542141 0.01529742 -0.02813782 0.00542084 0.04997375 -0.0713469 0.1143939 0.2151629 0.1816943 -0.1252677 -0.1414038 0.02115344 0.2023786 0.1309285 0.2496014 0.2584856 0.1782488 0.1192201 0.05085106 -0.09242464 -0.09836043 -0.1363223 -0.1651956 -0.1086448 -0.06395652 -0.03102841 0.0510542 0.06317777 -0.007411464 -0.05520864 0.09027286 0.04062845 0.1364537 0.1229345 -0.02536681 0.007860599 0.04566427 -0.03864467 0.07173806 -0.01407709 -0.04832278 -0.06925467 0.005084861 0.03988199 -0.006808436 -0.06335369 -0.02005034 0.07372499 0.06219423 -0.1205428 -0.2522261 -0.1021241 -0.02516421 0.001142861 -0.01328612 0.07873864 0.1671716 0.1452814 0.1068278 0.04342152 0.01206059 -0.02369532 -0.06824482 0.002133605 -0.01040198 0.09329214 0.05196927 0.02858218 -0.04944037 -0.003538388 0.07942218 -0.02882367 -0.007982546 0.01825726 -0.06391428 0.05537417 0.003073092 -0.002702649 0.1750078 0.09099963 0.07394356 -0.1017262 0.005821655 0.09972709 0.06994307 -0.07127316 -0.03391791 0.08895177 0.0192326 -0.06655836 -0.2629408 -0.194996 -0.0979278 -0.02168679 -0.03823084 -0.1785295 0.1120547 0.0985709 0.04467758 0.06578954 0.100059 0.07811909 0.09861498 -0.004503191 0.02972892 0.002022157 -0.05714452 0.03097357 -0.03787972 -0.06811408 -0.06584942 -0.1338281 -0.02279373 0.03532052 -0.006877693 0.004540083 -0.1123085 -0.1193339 0.01056717 0.09337572 0.0649931 -0.06826803 -0.06189676 0.08383825 0.07098711 -0.05439335 -0.06017275 -0.04347857 0.1434819 0.06662234 -0.1593469 -0.02933534 -0.05625134 -0.01632172 -0.05188887 -0.1866278 -0.09187987 0.0257421 0.08981199 0.03406354 0.04453342 -0.002476404 0.06542074 -0.04433331 -0.05837528 -0.1201163 -0.03800286 0.04916778 -0.04360179 0.007367769 -0.049638 -0.1780136 -0.05016644 0.09972216 0.004461603 -0.04210813 -0.1159913 -0.1643897 -0.09460428 0.05767209 0.04251084 -0.06746615 -0.02764914 0.08343339 0.1071934 -0.04679484 -0.1111275 -0.1424508 
  0.08080933 -0.1479277 -0.001380601 0.05835177 -0.01164561 -0.04133305 -0.03328674 0.05178039 0.1128815 0.03868387 -0.002303856 -0.05594398 -0.037405 -0.156562 0.02657751 -0.002030116 -0.01981281 0.03196269 0.03784239 0.05850677 0.0343295 -0.007466749 0.03487649 0.09824762 -0.1032008 -0.004923992 -0.1200707 -0.1372463 -0.05188172 0.03269572 0.09219833 0.08350324 0.1058201 0.007654476 -0.03657245 -0.09005913 -0.1184812 0.005653758 0.01031654 0.03677014 0.1246814 0.01175482 0.07076108 0.06085481 -0.056365 0.06470711 0.03505529 0.08384285 0.03397058 -0.00201209 -0.06836552 0.02423491 0.03667649 -0.02687432 0.1208471 0.0048927 0.0006717573 0.05552234 0.09555442 0.05622923 0.006638919 -0.06239824 -0.05993667 0.09921386 -0.003894381 0.08597029 0.04542502 -0.1234453 -0.04344375 0.03827512 0.1029575 0.1297147 0.1063019 0.01838187 -0.008315369 -0.0953296 -0.09917852 0.01643367 -0.01029608 -0.01477277 0.01799777 -0.01916768 -0.005974203 0.01023061 -0.1458746 0.007769927 0.03492302 0.1024647 0.1173506 -0.07320004 -0.00966018 0.008430558 0.01912036 -0.0772024 -0.006269589 -0.03001598 0.05021523 0.02151998 0.1254258 0.09139393 0.01590075 -0.04114265 -0.02327623 -0.01352751 -0.08960368 0.04190905 0.0185336 -0.06386346 0.02520858 0.03354908 0.0008961066 0.0939018 -0.0421792 -0.009150518 -0.1100745 -0.184969 -0.07655159 0.04774516 0.02459651 -0.02989788 5.999779e-05 -0.01659854 -0.06174401 0.01254954 -0.05277481 0.01707971 0.2260766 0.1650403 0.06048609 -0.04675194 -0.04059944 -0.04441141 -0.07643441 -0.04163484 -0.006804694 -0.04677978 0.09531508 0.1115712 0.216589 0.05921921 -0.007758557 -0.01925486 -0.0661335 -0.05260519 -0.08549859 -0.01877586 0.06830442 -0.008600624 -0.08291601 0.004546313 0.02931741 0.08359027 -0.02137658 -0.04865448 -0.1761443 -0.1853457 -0.0212616 -0.02676034 -0.001818703 -0.03523025 0.01908015 0.002270262 -0.02061324 0.1471919 -0.01888137 0.05851403 0.2217763 0.184747 0.07735948 0.03183824 0.04088704 -0.006791072 -0.1795824 -0.1157391 -0.05099093 -0.08036485 0.09517648 0.1385514 0.2798847 0.1526074 0.1371019 -0.07942054 -0.1585334 -0.09525895 -0.112241 -0.04757269 0.09981716 0.01174405 -0.01136491 0.04955485 0.05201932 0.1076521 -0.000188015 0.03501098 -0.1000211 -0.06508936 -0.02119378 -0.09679811 0.02170938 0.01741582 0.008913285 -0.0878292 0.06361336 0.08562279 0.06594118 0.1709945 0.3035259 0.1505631 0.1882365 0.05428614 0.08426476 0.04514714 -0.1613374 -0.09224752 -0.1343233 0.01843067 0.04506171 0.2241135 0.2999698 0.2327044 0.1817172 0.009353338 -0.1818078 -0.1028926 -0.1961171 -0.08442299 0.01178067 0.1430731 0.065633 0.02263862 -0.07511368 0.00458249 -0.0692284 0.01475154 -0.05925738 -0.02825825 -0.04769794 -0.1012802 -0.03873263 0.03096805 -0.01429279 0.005865863 -0.03431773 -0.0724036 -0.05512904 -0.05400351 0.02784498 -0.06510826 -0.1231483 -0.1070498 -0.05264496 -0.02501687 -0.0859804 -0.04461138 -0.09289446 -0.03626488 -0.1572056 -0.1439845 -0.0573504 -0.03043029 0.1322676 0.02587172 -0.08422243 -0.05541042 -0.223722 -0.1239302 -0.0870759 0.04138007 -0.0595155 -0.03494968 0.0607596 -0.09355423 -0.09644841 -0.02443603 -0.05062827 -0.00907878 0.04795842 -0.0525974 -0.003137035 -0.03640584 -0.1069717 -0.08412807 -0.230168 -0.1312394 -0.1157441 -0.199834 -0.2163044 -0.2522587 -0.2782575 -0.0970678 -0.01470601 0.02791488 -0.02948368 -0.003032228 -0.02006576 0.1231202 -0.08836247 -0.2129683 -0.2309587 -0.1463814 0.09707156 0.03324367 -0.02845412 0.06801668 0.06861278 -0.03457809 -0.1499075 -0.08759153 -0.1002614 -0.04021478 0.06916298 0.04635751 -0.04955499 -0.0549335 -0.05301248 -0.001883251 0.05232947 -0.02217791 -0.01567702 0.04635287 -0.03686765 -0.06623758 -0.1988951 0.05791361 0.1544038 -0.09647211 -0.201173 -0.2739011 -0.1799807 -0.1196369 0.07600068 0.1368824 0.04759475 0.1005932 0.1450298 0.1666205 -0.01937113 -0.2137547 -0.1613603 -0.08979362 -0.06486263 -0.1130759 -0.01644192 0.07229146 0.06651498 0.08425206 -0.09825245 -0.109745 0.01776335 0.06437153 0.1317656 0.1301422 0.02363853 -0.03566036 -0.001262735 0.06368169 0.06472658 0.08128845 0.09260833 0.1767217 -0.08856144 0.1110507 0.01408195 0.2422679 0.2914506 0.09600925 -0.1726145 -0.2734756 -0.07474425 -0.1357547 -0.03103528 0.1152617 0.07206552 -0.01001207 0.06687398 -0.03341566 0.002603607 -0.1103636 -0.0499304 0.06657422 0.0033587 -0.04486051 -0.02687118 0.05028076 0.0116315 0.03527575 -0.1007026 -0.07122678 0.063228 0.1135247 0.120085 0.1593527 0.07824157 0.03628125 0.01698972 0.0757522 0.07668208 0.05796158 0.04032011 0.2335404 0.02413427 0.1732902 0.1404383 0.2597166 0.258447 0.09855922 -0.1427684 -0.04147469 0.1084554 -0.1253572 0.007794729 0.07906227 -0.0206572 -0.06957954 0.03738676 -0.03007852 -0.02048694 0.07506929 0.04774727 0.04191922 0.02835523 0.01933296 0.08011414 0.04989757 -0.05892281 0.03391516 -0.1374864 -0.08394778 0.08628139 0.1287442 0.04546373 -0.06920769 -0.1181693 0.0294587 0.02442953 0.1496684 0.09795082 0.04844467 -0.03659506 0.1063266 
  -0.1601457 -0.1249567 0.004584093 0.01253743 -0.1720879 -0.3247872 -0.1244803 0.009696319 -0.039935 -0.06846503 -0.05385827 0.03182277 0.1954694 0.1318945 0.3036125 0.2550358 0.2296979 0.1048119 -0.02123571 -0.09881712 -0.09614915 -0.1858387 -0.09808325 0.02617535 0.07265972 -0.02070153 -0.1303863 -0.1158848 0.03430129 0.1882957 -0.02226622 -0.2504824 -0.03933614 0.07209171 0.1104632 0.01524336 0.1418687 0.02186782 -0.09435498 -0.1735592 -0.06312779 -0.1009721 -0.1101531 -0.001092482 -0.1149434 -0.2883973 -0.1374597 0.01114399 0.005089058 -0.02758807 -0.02825383 0.01815975 0.1613742 0.1577767 0.2669433 0.2693977 0.2431147 0.1033146 -0.002936751 -0.07447591 -0.02004351 -0.1247273 -0.03861553 0.08611696 0.1352362 -0.05996725 -0.1472749 -0.166254 -0.0273078 0.2244672 0.02372782 -0.2142363 -0.1761881 -0.0237508 0.01322224 0.04980173 0.1644026 0.06694229 -0.02392944 -0.199036 -0.0412798 -0.08428165 -0.1040852 0.02049221 -0.08184379 -0.3036893 -0.0905488 0.02826136 -0.01327513 -0.08215331 -0.09398878 -0.006865347 0.02142468 0.1254933 0.1355184 0.2088942 0.158075 0.07561857 0.05152522 -0.008651805 0.05497548 -0.05830825 0.01629044 0.1551493 0.1920095 0.01081282 -0.04497628 -0.1390235 -0.07617711 0.2212359 0.02655463 -0.160794 -0.2040045 -0.0361916 0.0724767 -0.002139243 0.06105817 -0.03131597 -0.0480898 -0.1807657 -0.08683542 -0.0861535 -0.07046917 0.1082467 -0.1088656 -0.315498 -0.06495387 0.003361157 -0.1456033 -0.1413487 -0.01865246 0.04686499 0.05758331 0.1378398 0.1000702 0.2785969 0.1863411 -0.01140835 -0.03805084 -0.02111826 0.06327035 -0.05056021 0.05924735 0.1874169 0.1472446 -0.05712622 -0.03136595 -0.1073572 -0.1322493 0.2094343 0.01879503 -0.1709194 -0.1408626 0.04436743 0.1272765 -0.01489148 0.02350712 -0.05460531 0.05504606 -0.008873996 -0.1472018 -0.1284661 -0.003042361 0.1454977 -0.06109066 -0.3119746 -0.07448336 0.03426594 -0.09670158 -0.1032771 0.09960379 0.04199447 0.07672264 0.1085863 0.07666799 0.1485628 0.1473253 -0.005514016 -0.03795154 -0.1056628 -0.004829983 -0.03183916 0.01113508 0.1539782 0.08425519 -0.01985884 -0.02174562 -0.1549576 -0.1258239 0.1130801 0.02646735 -0.07609981 -0.04987872 0.02415053 0.05933729 -0.0608785 0.00101779 -0.01368073 0.1059521 -0.02641588 -0.06304133 -0.05723434 0.1389727 0.2415832 -0.003095804 -0.2331995 -0.0621038 0.0198164 -0.06664014 -0.1045244 0.0916172 0.1028568 0.1411703 0.06515338 0.05739826 0.09688087 0.06692738 -0.009810963 -0.02967337 -0.058032 -0.06108465 -0.0495468 0.06861176 0.1846537 0.05782463 0.006276725 -0.01635342 -0.2048675 -0.1620701 0.1081009 0.07992826 -0.04461228 -0.05682661 0.05340935 0.003595625 -0.07769956 -0.04228337 0.0255532 0.1687209 0.05825236 -0.07752081 -0.09992339 0.1207025 0.3073123 0.08611523 -0.3118541 -0.1052881 0.02092807 -0.07904271 -0.110015 0.02763563 0.08636587 0.08786919 0.08130378 -0.05007571 0.03853312 0.05222343 -0.04586694 -0.01885284 -0.1010772 -0.1137408 -0.06085408 0.08172744 0.1631304 0.0714609 0.04114481 0.03102545 -0.1473554 -0.0331078 0.1743719 0.137367 -0.007139468 -0.1060851 0.06432249 0.0955905 -0.02577091 -0.03939429 0.03889127 0.1647785 0.1096741 -0.03920908 -0.05660953 0.04516737 0.2445577 0.08912092 -0.257304 -0.1098516 0.03878547 -0.03528619 -0.09212831 0.001955248 0.09331303 0.0585077 0.08827942 -0.0437597 -0.007821867 -0.08534577 -0.0748189 -0.1492458 -0.07670838 -0.1656609 -0.2258011 -0.1033106 0.04214257 -0.02979629 0.01107571 0.03237275 -0.09049688 -0.02633462 0.1319573 0.03581602 -0.003757585 -0.1200853 0.04829947 0.1079061 -0.004525031 -0.02799843 -0.02666776 0.02863606 0.04698744 0.0107431 -0.03738634 0.03358253 0.2001762 0.1151451 -0.1416873 -0.09651317 0.03493649 0.07450622 -0.05079302 -0.005271699 0.05947018 0.041826 0.0795458 -0.008039555 0.05066834 0.03838217 0.0001084711 -0.08641417 -0.01243175 -0.08489534 -0.1473529 -0.01746803 0.06269497 -0.05361559 -0.1017014 -0.009702348 -0.08531015 -0.05121359 0.1112297 -0.008425326 0.04938315 -0.09020787 -0.01767527 0.07957293 -0.01509224 -0.01679694 0.004694454 0.0009883471 0.05389187 0.0502423 0.04276666 0.06669226 0.1644176 0.08254848 -0.1373998 -0.06107251 0.09845188 0.08736096 -0.06590813 0.0169382 0.07599943 -0.0233214 0.01861348 -0.02232619 0.05041274 -0.02568423 0.0870221 0.013684 0.0620596 0.0466105 -0.1504876 0.05120253 0.0171353 -0.1118327 -0.1642434 -0.1076628 -0.1881703 -0.05702568 0.1293054 0.02996459 0.07251739 -0.135178 0.004941131 0.0308009 -0.03034586 -0.06729476 -0.01459547 0.05657444 0.125574 -0.01156662 0.03988012 0.06604666 0.1543872 -0.01593263 -0.2025179 -0.03046342 0.1939118 0.06133525 -0.08592136 -0.05091066 0.07796544 -0.1021498 -0.07676569 -0.01187146 0.02724765 -0.1271377 0.1688003 0.01253909 0.01364258 0.07409094 -0.1230289 0.02259445 -0.006855534 -0.1509188 -0.1431993 -0.1008066 -0.1591348 -0.102911 0.05256028 0.06437005 0.04479287 -0.1889992 -0.07298529 0.05422221 -0.0509976 0.04137431 0.03159277 0.1274529 0.1882946 
  0.05232679 0.1050817 0.02128709 0.1640333 0.104961 0.1915521 0.07072256 -0.04007489 -0.04398408 0.05105385 0.05794912 0.06740438 0.08548551 -0.07297581 -0.009619996 0.08878098 0.06468676 0.02252609 -0.06426755 -0.07107806 -0.1336195 -0.07527567 -0.1279596 -0.02119382 0.0333349 -0.02701471 0.01756527 -0.02516539 -0.07896104 -0.08105237 -0.03339533 0.03251991 -0.004717615 0.06712849 -0.08103776 -0.0092805 -0.04283509 -0.002021356 -0.06563714 0.08293027 0.04571959 0.06968618 -0.01400963 0.08115184 0.02881161 0.0445738 0.03544873 -0.05167157 -0.08482069 -0.0101811 -0.02421939 0.005178599 -0.009482529 -0.07545475 0.09254335 -0.02214729 0.02931372 -0.01021944 -0.05011733 0.001964394 -0.01932655 0.05498961 -0.03871361 -0.03863837 0.002107964 -0.05872026 0.07581037 0.01240632 -0.1131293 -0.1451558 -0.08833576 -0.03271341 -0.01301919 0.1067724 0.01578761 -0.02427676 -0.05131736 -0.0006759159 0.007079764 0.07348552 -0.002244778 0.04083294 -0.02653898 0.02944757 -0.02614133 -0.007985701 0.08569787 -0.02651607 -0.005761491 -0.002757097 0.002304104 0.02476318 0.008082584 -0.09762955 0.1352323 0.05202131 0.1253816 0.009669933 0.07692059 0.1149236 0.01473308 0.007845134 0.02003678 -0.01320929 -0.02597306 -0.1394343 0.04667684 -0.02975132 -0.06011548 -0.1254341 -0.09716112 -0.05735728 -0.01074532 0.0660516 0.07469769 0.00213902 -0.03629621 0.04876027 0.04018297 0.01790061 0.02100576 0.008286069 -0.1232681 -0.01006103 -0.0215408 0.02610809 0.02340864 0.01669916 0.09798183 -0.06792608 -0.04513336 0.02112286 -0.06030764 -0.1422849 0.05873461 0.05888488 0.1470828 -0.03453179 0.1079972 0.1152334 0.02341052 0.0389004 0.04874209 -0.007008208 -0.04223923 -0.04077321 0.031969 -0.05807579 -0.0717302 -0.07357518 -0.01535712 -0.05387209 -0.03245083 0.06709944 0.1057772 -0.03205919 -0.0280919 0.06879994 0.006060202 0.02956959 0.01178793 -0.09002253 -0.07614994 0.007519046 -0.0117372 -0.001826842 0.04296645 0.1864594 0.1426955 -0.01984284 0.03719137 0.0408058 -0.05190882 -0.05132563 -0.01979754 -0.004034563 0.04660761 -0.03804125 0.1564364 0.1410814 0.007825732 0.1228063 0.1309287 0.07311045 0.1018915 0.01503032 0.1022831 -0.0473473 -0.09207811 -0.02752389 0.04725577 0.03432519 -0.02301248 0.05471968 0.0489611 -0.02487024 -0.03148755 -0.0240388 -0.0905789 -0.07421298 0.08267216 0.01029792 0.09979437 0.108856 0.03734893 0.02471292 0.249818 0.3693444 0.2812017 0.06352942 0.07240883 0.001094141 -0.06212015 0.008312339 0.02764224 -0.07933595 -0.09608524 -0.07229591 0.003408171 -0.08362079 -0.0762261 -0.01149749 0.03069086 0.08713929 0.07465297 0.007573471 0.0387893 0.05624501 -0.08370988 0.005972435 -0.001396383 0.02125973 -0.007819902 0.04931055 0.04766169 0.06758312 0.04362411 -0.01305193 -0.02370057 0.003485214 0.09147883 0.04377708 0.07421038 0.04030194 -0.003005592 -0.02360696 0.03293287 0.004642013 -0.03342116 -0.130221 -0.04004561 -0.08420292 -0.1555944 -0.1464712 -0.0630706 -0.1080325 -0.1734766 -0.1615011 -0.04384178 -0.2547598 -0.200012 -0.1701014 -0.09688938 -0.0182535 -0.08605586 -0.1484901 -0.1004948 -0.01638758 -0.03545149 0.009785053 0.01915594 -0.009645268 -0.006246257 0.0106663 0.02758058 0.07773995 0.170943 -0.01978649 0.06685861 0.03952656 -0.08540402 -0.06875904 -0.08686167 -0.1527904 -0.1434898 -0.1094518 -0.0493786 -0.02548472 -0.0666904 -0.05199514 0.064131 -0.1355378 -0.0750973 -0.1231381 -0.02937522 -0.04058737 0.04043845 -0.1003482 -0.04337263 -0.1191821 0.03784616 0.07587106 -0.01363803 0.03577216 -0.1072348 -0.09758283 0.03581194 0.1037133 0.03581665 -0.0213685 -0.009742054 0.03169062 0.08954175 0.1647541 0.005224554 0.1335784 0.2000138 0.02227835 0.1337677 0.1000253 -0.05534371 -0.05342164 -0.0923662 -0.3092656 -0.2511615 -0.153009 -0.1851989 -0.06404004 0.04433738 0.09593301 0.2323871 0.1140048 0.1373037 -0.009614632 0.08375538 0.1153701 0.04424338 -0.03067283 0.06754285 -0.004159167 0.06684045 0.002336922 0.03515507 0.05926301 -0.03249956 0.03806233 0.1869546 0.1089034 -0.04350929 -0.09067242 -0.01862057 -0.03381615 -0.001783008 0.03887904 -0.05436381 -0.03559017 0.06917587 -0.06733637 0.01514564 0.002062107 0.04515296 -0.04975773 -0.100963 -0.132039 -0.03813886 -0.0454184 -0.1700415 -0.02246539 -0.01278996 0.07070944 0.3018872 0.2252835 0.2027023 0.124385 0.1818826 0.1758714 0.1762671 0.02389706 0.06750427 -0.03474157 -0.0022745 -0.02942377 0.1220965 0.0634547 0.06211076 -0.0416663 0.07607128 0.02936207 -0.1196991 -0.1322689 0.01055879 -0.0227706 -0.03545773 -0.05082028 -0.08286922 -0.08366953 -0.05469899 -0.08319968 -0.03832497 -0.05611601 0.04771329 -0.1271649 -0.1211091 0.06629703 0.1927395 0.05884136 -0.1165283 -0.1352782 -0.1828787 -0.1616579 -0.00587376 -0.1103557 0.001829963 0.00850215 0.01998596 -0.004897695 0.07614107 -0.01322359 -0.0221338 -0.09926418 -0.172622 -0.1280344 -0.02797217 -0.02257637 -0.00291415 -0.05962609 -0.04894035 -0.1139265 -0.1387025 -0.1632321 -0.01674228 -0.08641447 -0.04196888 -0.03784626 0.0006400032 -0.01125823 0.006113466 -0.06331721 -0.09379198 -0.005533847 
  0.08233098 -0.1386911 -0.1579117 -0.02151731 -0.05467861 -0.07007792 -0.05455775 -0.03231243 -0.000381157 -0.05889212 -0.1054511 -0.1122896 -0.145444 -0.1385122 -0.1442844 -0.1626469 -0.07161058 0.002948818 -0.1016482 -0.03461684 -0.06124746 0.07938175 -0.01746349 -0.02684514 -0.00725815 -0.0452278 -0.001352484 0.06489059 0.06386635 0.0944132 0.05641796 0.1319225 0.2447856 0.1508393 -0.03818894 -0.1022589 -0.05389672 0.08632677 0.05470549 0.001195646 0.1339257 -0.220597 -0.1113224 0.1398815 0.02125708 -0.0290106 -0.003303924 0.02403687 0.02201728 0.05096958 -0.00578712 -0.02891507 -0.09458521 -0.07875674 -0.1232609 -0.1092132 0.005715399 0.01532893 -0.04093718 -0.0803651 -0.1364258 -0.0546996 -0.08919621 -0.102111 -0.04161695 -0.04821665 -0.09202299 -0.00601173 0.00453831 0.09174886 0.03693405 0.101452 0.1516046 0.1043042 -0.05016444 -0.03180108 -0.0401472 0.00400163 0.006936779 -0.0538555 0.110591 -0.1913662 -0.02114402 0.1453125 0.05908888 0.1051342 0.07306223 0.06023891 -0.03411096 0.04559546 0.04852566 0.003957401 -0.08779936 -0.06208212 -0.02125373 -0.02817615 -0.03765805 0.02238792 0.08117601 -0.06445226 -0.04747954 -0.03890143 -0.05884076 -0.1444793 -0.06212937 -0.0563961 -0.04293929 -0.02701 -0.01762781 0.02929711 -0.04915691 0.07376514 0.1413528 0.1581318 0.04112079 0.03234071 -0.06801032 -0.05694307 -0.07397213 -0.1593305 0.05538225 -0.168622 0.08423341 0.144963 0.05776154 0.09560643 0.246196 0.2204671 0.04974485 0.01044088 -0.1401502 -0.03692714 -0.02009178 -0.08406418 -0.1341116 -0.07165119 0.08055337 0.03053284 0.05224752 -0.01360148 -0.01881143 0.09209565 -0.01710976 -0.06811656 -0.05055407 0.06102259 -0.01078074 -0.04553454 -0.04323401 -0.05581593 -0.06384882 -0.001911259 0.04928048 0.1504972 0.08446767 0.07793739 0.01354307 -0.07148393 -0.04005281 -0.1847364 -0.05332658 -0.1990974 0.04515539 0.07694539 -0.02376617 0.0385745 0.1579235 0.1752523 0.03110778 -0.04645821 -0.1622767 -0.01186445 -0.02507204 0.02308927 -0.1251387 -0.113453 -0.03793791 -0.02770928 0.04161773 -0.06894094 -0.005267993 -0.001304199 -0.03821367 -0.03380674 -0.01659702 0.0844303 0.08248632 -0.02299934 0.01746641 -0.05125808 -0.04888719 -0.04756375 -0.05729117 0.0920127 0.04455931 0.05598615 0.0929284 0.0429258 -0.03497474 -0.1478183 -0.08249283 -0.2156916 0.001415597 -0.005586827 -0.004328832 0.001636732 0.06817461 0.04584173 -0.07552291 -0.08823978 -0.06489154 0.02717362 -0.0390778 0.04623097 -0.1555072 -0.04144206 0.02324063 0.0304405 0.01034477 -0.07425471 -0.005202819 -0.003524524 -0.04612793 -0.004524521 0.04384654 0.1609263 0.05714399 -0.1338532 -0.05905535 -0.05017067 -0.01836038 -0.07412706 -0.05917859 0.04612257 -0.01972966 0.0561982 0.08331557 0.01964341 0.03821295 -0.03123809 -0.03651871 -0.09932701 0.02135007 -0.01009955 0.03253844 -0.1125579 -0.008563478 0.01678449 -0.0557255 -0.03812797 -0.005640392 0.0381778 -0.0007960117 0.05918737 -0.008221783 -0.08324424 0.01299183 0.1353147 0.009905115 -0.09699774 -0.05345792 -0.05213036 -0.09615908 -0.03608638 0.03197462 0.166186 0.004234953 -0.08931539 -0.06800371 -0.02772895 0.03296829 -0.08511841 -0.0814026 0.01760292 -0.01476342 0.06842081 0.091143 0.1027397 0.06829833 -0.01099563 -0.02959313 -0.04981178 0.0610278 0.02493523 0.01686092 0.02078895 0.03700021 -0.002272148 -0.02573867 -0.01268316 -0.03234604 0.0552004 0.03671197 0.01679974 0.00345842 -0.1318582 -0.05706497 0.14632 -0.03150644 -0.04166307 -0.0482118 -0.07456721 -0.1206685 -0.03893178 0.01418336 0.1249883 0.04808488 -0.04419615 4.560211e-05 -0.03288287 -0.05795123 -0.03878782 -0.05063727 0.02993174 -0.01450354 0.08333396 0.07485368 0.01166206 -0.041513 -0.1539689 -0.07356685 -0.09526268 0.001315583 -0.01812909 -0.00137197 0.0041761 0.032345 -0.06845592 -0.03018972 -0.03200189 -0.04386472 0.03084711 0.08578255 0.0420353 -0.08009812 -0.1131818 -0.02098496 0.125057 0.03494518 -0.006307886 -0.05663065 -0.01838321 -0.0624079 -0.01008924 0.02187701 0.129347 0.04815467 0.03514777 -0.006253855 -0.05250224 -0.1041803 -0.05398521 -0.1272103 0.04846441 -0.07608193 0.05056256 0.04653941 -0.02793387 -0.05515074 -0.1163258 -0.0645019 -0.1422224 -0.1067174 -0.04298785 0.03861293 0.06025949 0.001885362 -0.07426361 -0.03598646 -0.0665793 -0.01280861 0.1685711 0.12737 -0.06096704 -0.05865972 -0.04725041 -0.02916795 0.09753959 0.02796384 -0.0373816 -0.01405941 -0.07531679 -0.0521611 0.02571717 0.03060958 0.1881314 0.1476261 -0.0475463 -0.05254555 -0.08691359 -0.1087166 -0.05205259 -0.1402336 0.03973537 -0.08080334 0.03674036 0.01163697 0.007149023 0.05764058 -0.04598268 -0.04155214 -0.1751915 -0.2359605 -0.142878 0.04881597 0.04816419 -0.07216197 -0.1645323 -0.01338003 0.02112759 0.1242151 0.2417234 0.1321452 -0.02170807 -0.09736188 -0.1066598 -0.01878492 0.1090328 -0.01273281 -0.05112734 -0.05889191 -0.1530574 0.02955594 0.157873 0.1940998 0.2812074 0.1255368 -0.07891266 -0.09062006 -0.1384252 -0.1212977 -0.1395637 -0.1198044 0.08076949 -0.08054864 -0.04243825 0.02474856 0.05762624 0.09298303 -0.007518834 
  -0.1157162 -0.2710746 -0.007633597 0.002442244 -0.05244688 -0.1133687 -0.2260379 0.02870204 0.01855586 -0.1499837 -0.1410331 -0.2272224 -0.2265116 -0.2051698 -0.08801533 0.02163162 0.003217088 0.118024 0.2172145 0.2872602 0.1613127 0.04902346 0.1339953 0.1669011 0.03018226 -0.03689754 -0.1294325 -0.02564339 0.1169176 0.0832599 0.1395724 0.04703594 0.06808411 0.02426971 0.07697633 0.1232657 0.1052973 0.1383609 0.1183542 0.1017258 -0.03022065 -0.08552191 0.2133401 0.1711079 0.133949 0.1873085 0.0571555 0.08020176 -0.07484912 -0.1389994 -0.1123823 -0.02763142 0.09926471 0.01609244 0.09007531 0.1213319 0.07908025 -0.01327003 0.04727696 -0.06503586 -0.1322348 -0.1422581 -0.03199322 -0.02375145 -0.1034384 -0.1383321 -0.0283467 0.08622105 0.05593606 0.01584967 -0.002524855 -0.03720959 -0.005741883 -0.1106157 -0.1127203 -0.007205444 -0.01325482 -0.0453331 -0.05418931 -0.09078336 -0.01339184 0.06117529 0.2505107 0.1372856 0.184107 0.2793735 0.2227711 0.03401623 -0.09405532 -0.1141523 -0.06973132 0.0254443 0.1611722 0.06364455 -0.001616946 -0.01753879 -0.08924851 -0.2361403 -0.161045 -0.2502169 -0.2409169 -0.2384216 -0.07108464 -0.05847911 -0.1164381 -0.04142852 0.04442327 0.1291741 -0.001357541 0.0891578 0.07650696 0.08325633 0.04263317 -0.03767108 0.004220971 0.05839357 -0.005329386 -0.1302003 -0.1020566 -0.1685341 -0.001068106 -0.03153276 0.07117288 -0.02434505 -0.07740631 0.009913634 -0.03227723 -0.00460643 -0.1284742 0.00697172 0.1586211 0.1415514 0.1870515 0.07137509 0.08223076 -0.06293991 -0.08320314 -0.1184684 -0.1964295 -0.1695179 -0.1648344 -0.172295 -0.07427319 -0.001645562 -0.07238305 -0.01610414 0.02450741 0.01629348 0.02406992 -0.042579 -0.01839121 0.1111749 0.1221434 -0.03895422 -0.007051145 0.06047568 -0.1080342 -0.1345087 -0.08002335 -0.1222847 0.02035628 -0.1182537 0.01763206 -0.1772477 -0.1735847 -0.1418977 -0.07102791 -0.0460236 -0.07455914 0.01660503 0.1313323 0.207401 0.1695997 0.1199011 0.2499036 0.1517462 0.09580906 0.1259315 0.02723015 -0.08392118 -0.08079232 -0.08597337 -0.02591547 0.06313775 -0.0449051 -0.06811333 -0.03902958 -0.03996821 -0.1087619 -0.2118675 -0.2966517 -0.1393169 -0.03700725 -0.01914163 -0.09438935 -0.01792164 -0.05678154 -0.141514 -0.1021678 -0.123169 0.1205904 -0.01638302 0.1893748 -0.1019426 -0.1365759 -0.02470973 -0.06332637 0.03165563 0.001980229 0.02955483 0.1204167 0.1122844 0.08946987 0.01194403 0.160985 0.06712219 0.1215284 0.08174467 -0.07804789 -0.1942635 -0.07513675 -0.03779422 0.02076248 0.03272633 -0.0489221 -0.1417404 -0.1274186 -0.1623213 -0.08839654 -0.186629 -0.2217249 -0.1267248 -0.07032312 -0.01453276 0.0327316 -0.1178356 -0.1007146 -0.09871132 -0.06183054 -0.1136619 0.08041187 -0.06140259 0.2414932 -0.05826075 -0.1869065 -0.02336204 0.09240889 0.2107042 0.07727005 0.06227288 0.05243613 -0.1471837 -0.05398655 -0.1172258 -0.2006191 -0.2219913 -0.09347597 0.02757039 -0.02219842 -0.1070743 0.1062124 0.1979011 0.2227396 0.2026849 0.1777877 0.1800613 0.07789271 0.04332667 0.086605 0.09711497 0.1452176 0.1246785 0.1155929 0.04168912 -0.01300688 -0.08474854 0.002947401 0.1406662 0.1651615 0.0974664 -0.05125815 -0.0840411 0.1569007 -0.1499638 -0.2856207 -0.2195806 -0.06079917 0.1358 0.05531414 0.1092835 0.1102896 -0.1385946 -0.1053039 -0.1539539 -0.202821 -0.2330822 -0.0617292 -0.02666123 -0.006877651 0.05152441 0.2810448 0.2344018 0.1324982 0.09562233 0.04546006 0.1461401 0.1022603 0.08733264 0.002872904 0.09211633 0.2854041 0.08353765 0.1209875 -0.02481744 -0.02679487 -0.03575599 0.1142149 0.1054459 0.1481158 0.0670602 -0.1059953 -0.1186969 0.15193 -0.1134553 -0.2667086 -0.1906166 0.0123885 0.0985584 0.03762443 0.08972296 0.1698973 -0.0002485792 -0.03174301 -0.008015414 -0.05695892 -0.1211579 0.07099398 0.02621873 -0.006823289 0.09641235 0.05832725 0.01825961 -0.04522551 -0.0864993 -0.003043138 0.02458338 0.0786007 0.04365987 -0.1421252 -0.1011447 0.1670402 0.02374073 0.02575603 -0.0560177 -0.04899387 -0.04388832 0.06611378 0.04165532 0.0134705 0.004436338 -0.08035718 -0.02047208 0.17015 -0.05603587 -0.2029753 -0.04073126 -0.002622865 0.03811968 0.02595873 0.04859137 0.1143259 0.01884367 0.05169958 0.01104214 0.03513063 -0.0008038483 0.07675231 0.003760977 -0.07191358 0.06149153 0.04006738 -0.05115655 -0.05369404 -0.02288395 -0.07381914 -0.03594447 0.0008877994 -0.03007953 -0.09692087 0.002641971 0.008562897 -0.0331273 0.04803027 -0.03518949 -0.03788422 0.05797647 0.02025444 -0.00883913 -0.04682209 0.01639839 0.02493683 -0.1438859 0.1196755 0.02947292 -0.1333257 -0.1500909 -0.1100826 0.007548914 0.08709618 -0.03004313 0.1011062 0.03389902 -0.03104836 -0.08603583 -0.0558544 -0.05997115 -0.01790143 0.01346346 -0.06936751 -0.01932319 0.04533785 0.02723119 -0.04065313 0.1119898 0.000154124 -0.04289895 0.02241774 -0.07113978 -0.08212471 0.02101442 0.08913488 0.05146528 0.03623018 -0.01015886 0.04943888 0.03541603 0.005608947 -0.02860846 0.07243893 0.03518364 
  0.07619555 -0.1838947 0.01938855 -0.1344792 -0.08778409 0.00552832 -0.01323086 -0.1355363 -0.1219171 -0.2130139 -0.1852525 -0.1342703 -0.114145 -0.3311904 -0.3054804 -0.3727179 -0.2760962 -0.1245154 -0.07832755 -0.06364452 0.09772658 0.1233787 0.03892529 -0.002033517 -0.1768871 -0.1041485 -0.1159382 0.0205649 -0.123883 -0.1716743 -0.126499 -0.004076739 0.02996376 0.1134248 0.01390093 -0.03817751 0.02237462 0.08115835 -0.01661111 0.02955811 0.005312217 -0.09230065 0.01949897 -0.2648712 -0.2433649 0.01104976 0.01803897 0.1017464 0.3115236 0.3605242 0.4540227 0.3604254 0.3818865 0.2325896 0.2183847 0.01776255 0.04165466 0.107533 0.1315355 0.01589233 0.02339364 -0.06371978 -0.04765126 -0.02679175 0.03168193 0.05919933 0.06844064 0.08173187 -0.0509246 0.05871543 0.05851546 0.1097786 0.05196349 0.04257394 -0.1270137 -0.081315 -0.0187176 0.07752633 0.00918213 0.1342923 -0.08097335 0.01371644 -0.01939061 -0.0623426 -0.007766069 0.08645385 0.1189096 0.1993707 0.3691355 0.3253019 0.1639666 0.2514123 0.2795756 0.3482954 0.3563874 0.2087084 0.1975745 0.1766368 0.01559996 0.03266026 0.034842 -0.08479499 0.001612889 0.01954047 0.176554 0.2187613 0.1973833 0.1812556 0.1463401 0.2147678 0.1492732 0.1102637 0.1768156 -0.02542407 -0.02124056 -0.08212589 0.01824622 0.06516901 0.08494599 0.1461679 0.03148951 0.1853852 0.1013407 0.1723729 0.1099521 0.003186301 -0.1325443 -0.1353031 -0.02842691 -0.1393819 -0.3241208 -0.2828569 -0.2485817 -0.1643779 -0.05497836 -0.04676691 -0.01336603 -0.0273152 -0.1378255 -0.1122592 0.0759025 -0.06375127 -0.0523058 -0.05339469 0.01401956 -0.1405328 -0.08088419 -0.1466543 -0.02003119 -0.08999801 -0.2154039 -0.1746903 0.004890674 -0.1307678 -0.07117611 0.05973869 0.01583805 -0.07733791 -0.1438133 -0.1787061 0.05604291 0.03028266 -0.003042505 0.1145533 -0.03560589 -0.115378 -0.2139412 -0.2207732 -0.1816345 -0.04217607 -0.1139876 -0.1714183 -0.135756 -0.179871 -0.1653405 -0.1079923 -0.1008435 -0.07517503 -0.091475 -0.0906891 0.08805721 0.06921827 -0.05309227 0.01384218 0.1341109 -0.0298695 -0.2094188 -0.1121674 -0.05531724 -0.1033745 -0.2214638 -0.1560112 -0.09316333 -0.1262138 -0.1584584 -0.006009298 -0.08926784 -0.1753075 -0.1496773 -0.196426 -0.01170476 0.01196902 -0.03977 0.04844127 0.0441089 0.1182046 -0.04144739 -0.01359667 -0.1305393 -0.03615354 0.07700427 -0.01670535 0.05798071 0.03698612 -0.02062803 0.1171744 -0.005970699 -0.006060167 0.0003213299 0.02877956 -0.001440433 -0.07628447 -0.04965476 0.001636884 0.0631818 0.07524564 -0.1088781 0.006977596 0.04098237 0.02972372 0.0236531 0.1697645 0.1140616 0.1493487 0.1169668 0.2392888 0.06365287 0.05968378 0.1333573 0.102785 -0.1560574 0.08550962 -0.009560199 0.1311193 0.03121119 0.1146505 -0.02455563 0.02993509 0.01358274 -0.001389114 0.02581165 -0.03542123 0.05071799 0.0110033 0.03817187 0.02265503 0.07118968 0.09099682 0.08103438 0.07874633 -0.0769534 -0.07424587 0.04624048 0.003490512 -0.08157898 0.002342439 -0.003287766 0.05943561 0.0982516 0.09070548 0.02562811 0.05574915 0.05730765 0.1115398 0.04807423 0.02964858 -0.07715191 -0.1290163 -0.09142868 -0.04791731 0.02984034 0.07568264 -0.04503365 0.02888357 0.03299222 0.06004634 -0.04593262 -0.02302679 0.0372771 -0.008083706 -0.01306733 -0.09489765 -0.01921272 0.02165511 -0.04799006 -0.1036921 -0.04680905 0.03465041 0.03866497 0.06280965 -0.02303295 0.03044474 0.08223715 0.01878459 -0.05896512 -0.04614521 -0.002253239 -0.03384649 -0.07121915 0.05576877 0.02483711 -0.02901033 -0.0445115 0.07404015 -0.0005937013 0.02162006 -0.06054451 -0.07063751 0.002554079 -0.01655468 0.03338937 0.114622 0.003076229 -0.001136255 -0.05229078 0.1407302 -0.06814259 -0.03020037 0.06041048 -0.01773938 -0.05245867 -0.04380234 -0.001236702 -0.02290119 0.02640548 -0.06666358 -0.07713624 -0.07527954 0.005222699 0.02740864 -0.09837423 -0.01286637 0.06931876 0.01413269 0.04315322 0.03500525 0.03989058 -0.04725941 -0.08284671 -0.00518669 -0.03673217 -0.06277785 0.00977385 0.06073289 0.03749151 0.01734887 -0.03318369 0.07583079 0.008637698 -0.007848945 0.05431275 0.05596928 0.04861118 -0.081526 -0.1830821 0.0001828108 0.05739551 -0.0142789 -0.007301823 0.03366131 -0.0550285 0.0271213 0.08864803 0.1153248 0.07011802 -0.04166116 -0.009265595 -0.07725738 0.004991278 0.08915201 -0.09352213 -0.06384213 -0.02158231 0.03574727 0.0275428 -0.01849158 -0.06258541 -0.1070759 -0.08899499 -0.02629986 0.03354596 -0.04901958 0.02631914 0.07598273 -0.06535005 -0.05544576 -0.0068074 0.04384694 0.05052674 0.08875301 0.008221611 0.04772781 0.01199745 -0.1152063 -0.1730576 0.0138191 0.04342959 0.03699096 0.06650361 0.09316707 -0.07564029 -0.05910206 0.06235575 0.1179681 -0.0560931 -0.1018991 0.06595545 -0.01942839 0.05590007 0.0774716 0.03257452 0.02578116 0.009159765 -0.01927465 -0.06367873 0.002031533 0.04483675 0.03417365 -0.04023969 0.06361418 0.09060461 0.04392435 -0.003614359 -0.007365423 -0.07459069 -0.06298524 0.03776763 -0.002189328 -0.01591887 -0.02341135 
  -0.1822063 -0.06139619 0.05345809 0.04803847 0.08420999 0.04319799 0.1313593 0.1031595 0.05497922 -0.07201697 -0.1144142 -0.1034014 -0.06078649 0.004163718 0.05987883 0.1168539 0.2181509 0.03962206 -0.02571311 -0.03987556 -0.2044467 -0.01117201 0.04975793 -0.06144697 -0.08877981 0.001137653 0.03582056 -0.009677625 0.1317847 0.06068126 -0.0637771 -0.05486659 -0.06414361 -0.01981539 -0.05690612 -0.08863819 -0.03826739 0.1058822 0.05313791 0.07149518 -0.1137964 0.06545243 0.05973256 -0.01974587 0.03733447 0.1304669 0.1569947 0.005174746 -0.01138622 0.02218932 0.03447022 0.03708989 -0.04079647 -0.06130953 -0.1196102 -0.01865157 0.006546198 -0.145061 0.04544783 0.08685758 -0.06940673 0.006651287 -0.02126954 -0.03897123 -0.0982691 -0.1070767 -0.00054276 -0.08424998 0.04039178 0.01294504 -0.04987654 -0.007281223 0.02849022 0.04029176 0.01789451 0.1181146 0.06940873 0.05590607 0.08790392 0.05469565 -0.1054812 0.05288494 -0.04255434 -0.1605814 0.02610183 0.1269776 0.06791607 0.05627895 0.09067546 0.02767621 -0.06530401 0.04277986 -0.05084063 -0.02540819 -0.05662526 0.0529405 0.04751438 -0.1101508 -0.09432792 -0.02146351 -0.09769955 -0.08888095 -0.08815007 -0.1345586 -0.1420843 -0.05129936 0.01122657 -0.01488023 0.06094691 0.1228182 0.0534291 0.09045436 0.1708041 0.0869543 0.1070497 0.2511448 0.1587329 0.02285716 0.01007568 0.07565451 -0.2529359 -0.1458633 -0.2410881 -0.2693598 -0.1164825 -0.006669904 -0.05025705 -0.09709033 -0.0132701 -0.08809922 -0.2499702 -0.206257 -0.2514034 -0.1431312 -0.2662715 -0.05635557 0.05181755 -0.1725103 -0.1029707 -0.08111537 -0.2130512 0.01655446 0.0004756834 -0.1336638 -0.1492709 -0.1440127 -0.1982695 -0.1348215 -0.09280947 -0.1204209 -0.1927209 -0.1171585 0.01130994 -0.05531044 -0.07018486 0.0511264 0.002698222 -0.1435436 -0.1959911 -0.1082076 0.1119437 0.1506722 0.08032053 -0.1635422 0.002377641 0.04427247 0.1131352 0.1850864 0.2096259 0.2376894 0.163702 0.112433 0.02537718 0.05835594 0.02704053 -0.008843735 0.04413787 0.006465017 0.1250336 0.1626442 0.09806838 0.244513 0.2378503 0.2019201 0.09062814 -0.05004694 -0.105553 -0.1530983 -0.142679 -0.1677537 -0.2161489 -0.1484727 -0.02890054 -0.06319295 -0.09049676 0.02858847 0.01132963 -0.00256868 -0.07340017 0.05509224 0.07646289 0.1710113 0.1493343 -0.117913 -0.05692944 -0.05137167 -0.009815895 0.02489176 0.09189356 0.1850228 0.1797452 0.2217066 0.1410961 0.1429198 0.05586606 0.01010173 0.01237347 -0.05189537 0.04336093 0.08663722 0.06170197 0.0433946 0.08999959 0.1484314 0.2084182 0.1234323 0.1435627 0.06116242 0.1519591 0.09351436 -0.001537345 0.07175974 0.1689705 0.1004276 -0.061248 -0.03283309 -0.006267179 0.0533836 0.07772844 0.09195183 -0.05820052 0.1899009 0.04735687 -0.1451988 -0.1661732 -0.2293845 -0.1587423 -0.1793959 -0.1653573 -0.08611822 -0.01012371 0.1363366 0.05469777 0.02171426 -0.1083273 -0.04009521 0.08432794 -0.01017543 -0.08627919 0.07751685 -0.02820044 -0.1063962 -0.08747047 -0.04604447 0.01393094 -0.06976938 -0.004871506 0.07179844 0.1511938 0.04477852 -0.05413025 -0.02933442 -0.02259318 0.04255163 -0.02168549 -0.03852928 -0.0666202 0.04004397 -0.06960081 0.03070977 -0.009654283 0.2401793 0.09895825 -0.03059331 0.02364229 -0.1427656 -0.07402561 -0.1402335 -0.1332363 -0.05206065 0.06465832 0.1344633 0.0892067 0.1134078 0.1221726 0.04727212 0.1286502 0.04531121 -0.08271009 0.1572654 -0.007178142 -0.009272913 0.08080945 -0.03545835 0.06670956 0.02491974 -0.009048103 0.1219206 0.1213501 0.04588086 0.01937176 0.01582642 -0.08320154 -0.04661137 -0.113632 -0.02820203 -0.2008515 -0.120674 -0.1734769 -0.07507641 -0.1013666 0.1939233 0.119582 0.1126035 0.03675085 -0.08748391 -0.01931084 -0.1000832 -0.1451876 -0.1365946 0.07134654 0.06235863 0.06756418 0.02147785 0.0371347 -0.0379246 -0.03726323 -0.1553505 -0.1112419 0.06140757 -0.1222414 -0.1126636 0.03815861 -0.001915 0.08747838 0.04272342 -0.04240536 -0.03199989 0.01385573 -0.01118306 -0.0182437 -0.003774356 -0.02704451 -0.05380882 0.0009509556 0.1454334 -0.03360579 -0.01959548 -0.07519277 0.06573346 -0.08579684 0.07087237 0.09195966 0.08893516 0.1147619 -0.07030633 -0.0404411 0.03642656 -0.15683 -0.1752803 0.07230305 0.01954327 0.01117986 0.009246096 0.03707967 0.02365361 -0.02072182 -0.04762425 -0.03639953 0.03350351 -0.006543834 0.02718347 0.06405891 0.04977725 0.1019509 0.03285726 -0.05944855 -0.06841315 0.01550684 0.05154371 -0.1066705 0.001939634 -0.03562836 -0.03076962 0.0245651 0.0653439 0.07216991 0.01177518 -0.02762671 0.1392795 -0.1361254 0.03924595 -0.03220395 -0.07998866 0.05580498 -0.06833468 -0.09014531 0.09873102 -0.02652117 -0.0884844 -0.04893215 0.04811038 0.01297884 -0.05680071 0.03934294 0.02815167 -0.01839567 -0.04651815 -0.04060842 -0.02021964 -0.02192832 0.08313793 -0.001583154 -0.03695851 0.1059573 -0.002714352 -0.07395742 -0.05035284 0.08294863 0.0699513 -0.0410166 0.01341858 -0.02034095 -0.05059602 0.001952055 0.06101253 0.08696646 0.04276235 -0.04053101 -0.06213752 
  -0.1183794 0.08785945 -0.2181756 -0.109169 0.06358217 0.05346055 -0.1324423 -0.1172147 -0.01218214 -0.1445894 -0.04054404 0.1500098 0.001502457 -0.03599055 0.007983055 -0.07553867 -0.05653103 0.07700808 0.08435021 -0.03307422 -0.1589051 -0.03014421 0.06228751 -0.04781007 -0.06294909 0.02272915 0.09817173 -0.07430146 -0.06348966 -0.04422837 -0.03876851 -0.08474085 -0.04095126 -0.03855797 -0.07100427 -0.1252245 -0.01052775 0.1864166 0.1749658 0.1445843 -0.1231198 0.04963765 -0.1328609 -0.09599571 -0.002542043 -0.008488983 -0.01273564 0.04191279 0.01405799 -0.01362839 -0.09359033 0.01122203 -0.02574068 -0.09310517 0.04716706 -0.02933155 -0.0313218 0.01753167 -0.02369473 -0.05037641 -0.1336557 0.03807193 0.1453433 -0.04770977 -0.0007508937 0.0276217 0.01578076 -0.02277144 -0.02838898 -0.023013 -0.00591332 -0.007717879 0.04794618 -0.05674123 -0.03803579 -0.0713726 -0.04084424 0.1756806 0.1115362 0.0322758 -0.1414807 0.04832804 -0.002050202 -0.08751325 -0.1021382 -0.07394383 0.02329436 0.1190862 0.05936316 -0.01358781 -0.07123915 -0.01844071 -0.05353131 -0.126545 -0.01473428 -0.03025235 -0.01110034 -0.03905351 -0.05917146 -0.08428747 -0.08178085 0.1185861 0.1609772 -0.01914898 -0.01366868 -0.04319869 -0.03505065 0.03103174 0.0807303 0.01633456 -0.02865783 -0.06754422 -0.003170643 -0.02442708 -0.008152346 -0.1349814 -0.0712363 0.1435113 0.06605181 0.06996711 -0.1209977 0.04660754 0.1127909 -0.05250961 -0.1514965 -0.1317897 0.009017478 0.1847748 0.0964864 -0.06932832 -0.1227758 -0.01234783 -0.02722366 -0.09929559 -0.05339487 -0.05178 -0.0002361895 -0.07978183 -0.06659528 -0.1503318 -0.02258705 0.1738768 0.1815679 -0.01455968 -0.0356445 -0.08984136 -0.06744817 0.03163746 0.09329164 0.04647577 0.06605079 -0.1172948 -0.08463008 -0.09267046 -0.02162826 -0.09511413 -0.03723433 0.1302529 0.09125043 0.1068234 -0.08759566 0.08406909 0.1467832 -0.01848652 -0.05721021 -0.07209273 0.04524646 0.2195437 0.1005598 -0.07251786 -0.1675116 -0.06104232 -0.0626642 -0.0519724 -0.01725426 -0.07160204 -0.03227366 -0.1603647 -0.0825933 -0.1468929 0.0196728 0.22438 0.15656 -0.04029859 0.0217469 -0.1433069 -0.09396987 0.02174722 0.06404788 0.008730867 0.05529806 -0.1765122 -0.1124611 -0.1337304 -0.0105188 -0.008204874 0.03853923 0.1116786 0.115426 0.1640336 -0.1921894 -0.07284947 -0.02794842 -0.07460587 -0.04613662 -0.04553189 -0.01414228 0.1698845 0.07213151 -0.08377333 -0.1261203 -0.02779633 -0.04185374 -0.02329062 -0.009220305 -0.0460855 -0.05661713 -0.1427087 -0.005378359 -0.01509262 0.06679382 0.1814755 0.1688499 -0.08690898 -0.01712253 -0.1181445 -0.04287621 0.102075 0.05315777 0.09897771 0.03331652 -0.1541166 -0.1291195 -0.1479066 0.009944684 0.03424367 -0.006490031 0.0725335 0.1500064 0.2487162 -0.1493578 -0.04940787 -0.004711682 -0.07427863 -0.02664964 -0.02588926 -0.03685749 0.03480941 0.02589057 -0.0152238 -0.1036071 -0.03759429 0.004298668 0.03488467 0.0171288 0.03612515 -0.08538172 -0.076823 -0.02249843 0.01204101 0.01739386 0.07352125 0.1038237 -0.1289725 -0.03344722 -0.1490318 -0.1333377 0.06022762 0.06214347 0.1235149 0.06346616 -0.1347354 -0.1159206 -0.119139 0.03996435 0.02737433 -0.03444387 0.02463405 0.1170489 0.1919656 -0.1058233 0.006830068 -0.01137386 -0.005836412 0.06404117 0.05113345 -0.04934461 0.1127598 0.08586849 0.04529748 -0.05229761 -0.07747821 -0.07358194 0.04710797 0.003838663 0.04666416 -0.05206259 -0.1025368 0.003804892 0.05651992 -0.05063693 0.0127513 0.08847225 -0.09076668 0.06393372 -0.1396766 -0.09948118 0.07578914 0.1355923 0.07008173 0.01550374 -0.1088409 -0.08884709 -0.07882579 0.1323197 0.02115004 -0.02107235 0.0610274 0.0876803 0.1704397 -0.09479813 0.002486841 -0.07716629 -0.09706906 0.02480866 0.1175024 0.05493782 0.08962192 0.01748917 -0.04128088 -0.1078845 -0.09613451 -0.1367685 -0.07239951 -0.02912177 0.06283547 -0.003361645 -0.1194085 0.01254604 0.06591897 -0.02430907 0.05429423 0.1335935 -0.0207296 0.136099 -0.03432614 -0.0649365 0.05634435 0.1251044 0.05385519 -0.1352728 -0.1545269 -0.106155 -0.1134608 0.07113716 0.02299931 0.006529288 0.01531763 0.02346088 0.09659938 -0.07600754 -0.004042812 -0.06549654 -0.06932563 0.01321669 0.05675198 0.08625813 0.03064487 -0.01899592 0.007171358 -0.1227109 -0.1408477 -0.1483462 -0.09025066 0.01868611 0.005135171 -0.08832386 -0.09401801 -0.01161927 0.1019786 0.009469599 0.01439948 0.08959898 -0.04376752 0.1312399 0.0292706 -0.02085433 0.03089416 0.1062834 0.003953123 -0.1499926 -0.1225625 -0.08487862 -0.07116878 0.02448767 0.05192474 0.03291332 0.0226587 0.0556792 0.1423725 -0.1510836 0.01107367 0.09269 0.01979073 0.04286963 0.1003072 0.1231794 0.1008334 0.01863273 -0.009490332 -0.1046041 -0.1414194 -0.1194123 -0.03305269 0.05189277 0.01436476 -0.09480339 -0.05812499 -0.06732778 -0.00340113 -0.1156158 -0.06857909 -0.04770856 -0.1064171 0.09989878 0.08559928 0.01421624 0.05002422 0.03793113 0.0298976 -0.1430097 -0.06342559 -0.07794132 -0.06690922 -0.003307779 0.02782004 0.02821564 0.0099442 -0.0245561 0.1071552 
  0.2953702 0.04114386 -0.01786795 0.09861451 0.3235078 -0.00548205 -0.04494832 0.119737 0.1288879 -0.006651487 -0.03119263 0.07852603 0.03848638 -0.07855605 -0.04528629 -0.02870831 -0.1079195 -0.197799 -0.1240619 -0.1575541 -0.2252117 -0.1048431 0.160199 0.1402952 0.02796241 0.1115472 0.3006841 0.2273908 0.02247922 -0.04679719 0.05480307 -0.01613348 -0.2549312 -0.4064295 -0.2134224 -0.0364678 -0.1183803 0.09825218 0.07091947 0.05296086 0.1243472 0.0706104 -0.09153144 0.03763906 0.1832903 -0.06202489 -0.1542726 -0.007253894 0.02317237 -0.04485387 -0.06083065 0.0471347 0.004317816 -0.06752258 -0.1238514 -0.01301357 -0.04386739 -0.04174933 0.08648893 -0.004390555 -0.06560092 -0.06583741 0.1589895 0.1011268 -0.09039234 -0.07253649 0.1433173 0.1756069 0.09753577 -0.08881823 0.03385749 0.0004798288 -0.1423664 -0.2247454 -0.07169902 0.03823418 0.006052764 0.1382096 0.1899073 0.09687275 0.1847669 0.1659625 -0.1202505 -0.03560198 0.09953757 0.05067825 -0.1619804 -0.06980193 -0.02162768 -0.01190333 -0.0198465 0.09311742 0.03358077 -0.02599633 -0.04644347 0.01567487 0.02042649 0.04141932 0.2280845 0.009502973 -0.02935583 -0.06846835 0.04393662 0.03175058 -0.1223601 -0.07668693 0.06027892 0.04949145 -0.03760149 -0.06942752 -0.03179511 -0.01887648 -0.1259613 -0.25509 -0.1842036 -0.02134907 0.02887088 0.08877642 0.1675328 0.1056862 0.2253676 0.1538011 -0.1956358 -0.1395481 -0.04166304 -0.09053719 -0.242053 -0.1132265 0.05857287 0.006731722 0.02659794 0.1546991 0.1355949 0.003730875 0.0377928 0.05297498 0.02606946 -0.0856349 0.1471308 -0.02430949 -0.1106406 -0.00346468 0.09071826 0.07005727 -0.1380441 -0.1097143 0.03000132 0.09080841 -0.02568819 -0.04270365 0.01116715 -0.01200922 -0.1119277 -0.1395731 -0.1085628 -0.01444804 0.04607136 0.1604666 0.1634699 0.08313334 0.2859357 0.1504799 -0.1688409 -0.0938645 0.01470411 -0.02752094 -0.1725748 -0.03642286 0.07798494 -0.01117026 0.07378725 0.1035392 0.09082376 0.07566922 0.09112047 0.04720563 0.00661547 -0.1860259 -0.06875048 -0.2028256 -0.1335381 -0.006857325 0.08405466 0.04750195 -0.1442831 -0.09697397 0.04405702 0.08971978 -0.02147908 0.006091473 0.04902134 0.003288751 0.00776933 -0.0533376 -0.1344392 -0.04214451 -0.004221248 0.04001805 0.02161976 0.09313518 0.2157504 0.1086706 -0.2101218 -0.0396453 0.04130891 -0.01619791 -0.1280591 0.05713781 0.1301326 0.1126061 0.1689484 0.1158371 0.1069593 0.0835385 0.05087971 -0.05884236 -0.06642421 -0.2078125 -0.1871601 -0.2215306 -0.07292411 0.004728718 0.0965695 0.1173737 0.02723955 0.04467677 0.1387992 0.1304438 0.008662376 -0.02674359 0.09002482 -0.005970304 0.002550106 -0.04052204 -0.04399849 -0.07187149 -0.0835255 -0.001737591 0.02692056 -0.002402278 0.2442189 0.1448998 -0.1625952 -0.01370715 0.1038761 -0.01081331 -0.08818141 0.07269005 0.1017825 0.08947261 0.07685892 -0.02083318 0.04592016 0.05577746 -0.004030393 -0.07384209 -0.1536898 -0.2273233 -0.1726919 -0.1960358 -0.1006019 0.01131869 0.0696056 0.01824336 0.0469653 0.06834075 0.2221291 0.1686665 -0.04483946 -0.0344985 0.05727702 -0.01273477 -0.0009234798 -0.08993825 -0.06685925 -0.03286368 -0.07882425 0.02666682 0.05132762 -0.01929887 0.1852726 0.1172732 -0.1374723 0.01254175 0.09477113 -0.05427509 -0.08723107 0.006582064 0.06281008 -0.0247113 -0.02316238 -0.04341135 -0.06572045 -0.03036742 -0.1288386 -0.1419597 -0.1092287 -0.1469336 -0.05540481 -0.09580562 -0.03356676 0.08594461 0.1580127 0.03930644 0.00185176 0.001828382 0.1293236 -0.001237471 -0.02270511 0.007636985 -0.002247334 -0.05195362 0.0001156498 -0.03596811 -0.05284854 0.003843796 0.06932504 0.1023053 0.00985187 -0.06537943 0.1299198 -0.014505 -0.08923606 0.06157294 0.09618016 -0.05154188 -0.09452695 -0.04261829 -0.03775961 -0.0836599 0.01436016 -0.06185162 -0.05223754 -0.08363412 -0.1255704 -0.07416138 -0.02868496 -0.02897367 0.0607628 0.03018845 0.004047781 0.151586 0.1365051 0.05001785 0.06988686 -0.002590443 0.0617558 -0.05120164 -0.03844832 0.03994259 -0.009085037 -0.09302496 0.01064477 -0.03091313 -0.05964008 0.0828761 0.09805872 0.0356329 -0.07249802 -0.1411938 0.07181887 -0.05102033 -0.1086736 0.03174789 0.03654696 -0.05489545 -0.08499623 -0.06296749 0.03997755 0.03645646 0.1293918 -0.03059962 -0.02101233 -0.02478542 -0.002193218 0.08131355 0.08336617 0.02804319 0.1279576 -0.00645034 -0.0641175 0.09019851 0.02005029 0.003157515 0.0406945 -0.059444 -0.02401173 -0.08381478 -0.02684974 0.009503683 0.05206878 -0.06327231 -0.05321281 -0.03810238 -0.03309264 0.08048031 0.0834578 0.02355808 -0.07287017 -0.07277337 0.07321061 -0.1180342 -0.102561 -0.007163264 -0.05667328 -0.1439924 -0.1492363 -0.1408904 0.05295059 0.08868802 0.1756704 0.03612032 0.04915605 0.09523107 0.1079553 0.2064252 0.1318184 0.08876759 0.05912317 -0.0960322 -0.1496815 -0.07626728 -0.06412201 -0.065118 0.02320186 -0.05697511 -0.1262976 -0.1746825 0.01244609 0.1029039 0.01926306 -0.04812923 -0.09664939 -0.1308627 -0.02457278 0.04750172 0.03215743 0.05019344 -0.03881421 -0.01340811 
  -0.2244511 0.03216426 -0.08964928 0.1702895 0.121284 -0.100127 -0.1710405 -0.02182809 0.06213226 0.01986352 0.008197484 -0.03512311 -0.1138374 -0.07779143 0.164244 0.1871241 0.05494557 -0.08494008 -0.2110271 -0.1072749 -0.1125937 -0.1412538 0.05947666 0.0580024 0.015701 -0.1120038 -0.03701249 -0.1157725 0.0661923 -0.08711431 -0.1319809 0.03199717 0.09206177 -0.08964333 0.0260838 0.072542 -0.007035707 -0.09739415 0.06168405 0.1971036 -0.207209 0.2704058 0.1370466 0.3276372 0.3084532 0.1085562 -0.0187976 -0.03402801 -0.05657291 -0.1120159 -0.03964617 -0.02323069 -0.04941666 -0.0002023336 0.2211547 0.2693198 0.1877017 -0.003654263 -0.1795177 -0.1636064 -0.140379 -0.2192329 -0.01025551 -0.09603923 -0.09544982 -0.04057698 0.02705413 0.04952971 0.170982 0.04974908 -0.05662838 0.08716021 0.1187948 -0.05483689 0.1862125 0.1553481 0.05520131 -0.01546214 -0.0006003605 0.08934342 -0.1459996 0.2443418 0.2697611 0.3268353 0.2575004 0.1802324 0.1822893 -0.04051132 -0.108639 -0.06611802 -0.02151028 -0.1229854 0.01200951 0.02653562 0.1737957 0.1861961 0.1030495 -0.002161153 -0.1224385 -0.1162882 -0.06809222 -0.09727949 -0.0360205 -0.1929553 -0.1775241 -0.02474898 0.1034961 -0.01254686 0.1425391 0.1716129 0.03396966 -0.01655517 0.02639389 -0.02599324 0.1012203 0.05011979 -0.07734948 -0.04089391 0.006892088 -0.04549025 -0.04875937 0.159643 0.289725 0.319441 0.1583216 0.1800785 0.1487284 -0.05025876 -0.05759044 0.03571742 0.07129191 -0.1173171 0.02536053 0.0002420788 0.1806102 0.0145321 -0.1147877 -0.07987248 -0.05139741 -0.0184095 0.01928912 -0.01599905 0.01447406 0.00968012 -0.03430242 -0.01528451 0.04748915 -0.02103169 0.0866581 0.1500808 0.1262475 0.05551776 -0.04980459 -0.0132957 0.072414 0.06625141 -0.08584842 0.01965564 0.04932719 -0.03117234 -0.193157 -0.1183713 -0.01021751 -0.03117244 -0.1460563 -0.06651714 0.007947747 -0.05218999 -0.02395654 0.07799295 0.058238 -0.123871 -0.07207464 -0.01295939 0.1023 -0.08698541 -0.1671986 -0.1204086 -0.05594696 -0.002843462 -0.02657221 -0.01006993 0.07714971 0.09972478 0.0512112 0.007159796 -0.04041127 -0.07631142 0.01209887 0.03546305 0.1015751 0.03813738 0.02018686 0.02489847 0.05732548 0.05345529 -0.01823445 -0.02798433 0.02049451 0.04467447 -0.1373956 -0.1095789 -0.1584469 -0.1463488 -0.248202 -0.08658973 0.0281519 0.07530367 0.1270671 0.1713126 0.06817851 -0.05312975 -0.02462449 -0.01219373 0.04699213 -0.05493493 -0.04227515 -0.03954749 0.008733977 0.019026 -0.1138843 0.006514738 0.04818029 0.04307405 0.1582716 0.09936661 0.04701393 -0.05762906 -0.05129502 0.04819759 0.01159521 0.02880423 0.06620737 -0.0002893743 -0.0008929213 0.00872332 -0.04542777 -0.06225886 -0.04490053 0.005337751 0.004343153 -0.03990815 -0.08044215 -0.01367188 -0.02632382 -0.0369546 0.09391741 0.09604605 0.08710652 0.101933 0.0531233 -0.09188528 -0.07579727 -0.007697872 0.01607683 -0.09319759 -0.08127443 0.03669161 0.03385225 -0.03910796 -0.1467987 0.04013887 0.03648729 0.0655975 0.1108057 0.1932994 -0.03117324 -0.105549 -0.008849196 0.1171173 0.05288769 0.01914321 -0.01660812 -0.1149814 -0.05437525 0.007869168 -0.06073801 -0.01852341 -0.01689386 -0.01716914 -0.003013834 -0.003846696 -0.01324626 0.03245127 -0.07391759 -0.07125448 0.009182353 0.02085124 0.05915064 0.07039876 -0.0870817 -0.1039485 -0.1464174 -0.06941097 -0.02532446 -0.0310573 -0.01982313 0.03610729 0.05069195 0.007289866 -0.0023639 0.03528024 0.05793013 0.1008976 0.04625891 0.06542056 -0.01191891 -0.1265049 -0.03340224 0.1039914 -0.04201706 -0.1016535 -0.05569815 -0.05635665 0.007496086 0.08298296 0.04459168 0.03823987 0.02863275 -0.07831945 -0.05850618 0.09588905 -0.01550132 -0.07630752 -0.1233536 -0.1684108 0.05370541 -0.0743342 -0.006900892 0.0354817 -0.08640091 -0.1351037 -0.092269 -0.04941706 0.05702631 0.01426138 0.1105378 0.1527197 0.07632321 0.0544224 0.08308851 0.04365711 0.06589889 0.1280765 0.01389403 0.01447797 -0.02699307 -0.05871833 0.002746152 0.08340185 -0.1043843 -0.1288248 -0.04672577 0.03803174 -0.01611265 0.03261353 0.03071852 -0.03013206 0.02010989 -0.01014821 0.006314057 0.1313729 0.01472909 -0.112389 -0.1123317 -0.01583678 0.1028606 -0.113651 -0.04101165 -0.03466779 -0.05665247 -0.01735136 -0.07161922 -0.01215147 0.1431912 0.06588101 0.04620763 0.1152961 0.001244841 -0.02575351 0.04082146 -0.001678708 0.01417222 0.06630384 0.0160257 0.005467718 -0.01843954 -0.02580839 -0.0159312 0.02085296 -0.0978833 -0.06585102 0.04144581 0.06472918 0.003883596 0.05045275 0.05894902 -0.03651815 0.02301499 0.01354605 0.04552273 0.05452749 -0.02481084 -0.1095896 -0.06609053 0.08944809 0.06760909 -0.05366869 -0.05434281 -0.005406644 0.002296892 0.07546187 -0.06793362 -0.07621642 0.1055093 0.06605862 -0.01135665 0.06764983 -0.05815349 -0.06292251 -0.125952 -0.09829424 -0.1037529 -0.01965043 0.06627801 -0.01352186 0.05757692 -0.1016448 -0.05824478 0.006559634 -0.02353895 0.01828895 -0.09580163 -0.02214558 0.006833753 0.05796913 0.06125087 -0.01163448 0.02298349 0.007130323 
  0.01034811 -0.08131336 -0.1095963 -0.03840632 0.09191228 -0.01262062 -0.1687123 -0.1503333 0.03272446 0.1461523 0.0362604 0.1227715 0.03043 -0.1051375 -0.1059644 -0.1124676 -0.06531772 -0.06908053 0.1090453 0.2079645 0.113813 0.1629972 0.1547471 0.1253525 0.1707027 0.09739175 -0.03301515 -0.1156165 -0.05813581 0.000129518 -0.102358 -0.01663796 0.01362223 -0.0173912 -0.04504292 0.03693107 0.03411637 0.03631346 0.02341846 0.02470551 -0.02449825 -0.02505523 -0.05265934 0.0394273 0.2362912 0.1481979 -0.05197084 -0.1077463 -0.01030481 0.1259261 0.02016329 0.0543568 0.1133287 0.0249775 -0.108074 -0.1342853 -0.1500679 -0.2312493 -0.07618812 -0.04055211 0.0182215 0.1391255 0.1006604 0.06603381 0.1304349 0.0940742 0.0296514 -0.07411113 -0.1374193 0.009082487 -0.05976763 -0.01266841 0.0144144 -0.05006791 -0.0254074 -0.05320217 -0.07026976 -0.05713046 0.01235881 0.187205 -0.05081931 -0.01720631 -0.01785879 0.1901938 0.3942294 0.169767 -0.107799 -0.1144324 -0.04348461 0.1134078 0.02740852 -0.005940161 0.1480646 0.02602965 -0.08165832 -0.135819 -0.1935452 -0.3654276 -0.2228623 -0.08264609 0.005391638 0.1571539 0.04438379 0.09994826 0.1184362 0.2185764 0.1519902 -0.01901306 -0.1208734 0.04451864 -0.001839346 -0.01474715 0.04578556 -0.04634226 -0.04753835 -0.04487671 -0.1259386 -0.03304829 0.06720109 0.1927853 -0.1175979 0.01667279 0.06381674 0.286061 0.3919515 0.2140794 -0.0989863 -0.243688 -0.0979659 0.1088173 0.09584603 0.02784275 0.1355427 0.05352347 -0.1090438 -0.1831554 -0.3026212 -0.4017177 -0.2164327 -0.1240858 0.05060162 0.2107653 0.01586809 0.03391949 0.1252654 0.1422641 0.1241911 0.0395712 -0.03417794 0.07620047 0.0288471 -0.01497359 -0.04237993 -0.1340557 -0.02332639 -0.04459938 -0.1113361 -0.006937933 0.03811564 0.04163027 -0.05138999 0.08630267 0.1488433 0.3423077 0.3300012 0.1465634 -0.2029662 -0.1884063 -0.08118223 0.1663285 0.1006091 0.01543619 0.1169331 0.08581591 -0.01165277 -0.1054294 -0.2900943 -0.2387738 -0.2224476 -0.1669018 0.02908177 0.1083127 -0.01564132 0.007618062 -0.01308511 0.03418113 0.09822569 0.06576227 -0.05399884 0.0309978 -0.003209694 -0.09875298 -0.09304863 -0.107245 0.09597047 0.05454921 -0.07750073 -0.03701679 0.01399795 0.01524391 -0.04962197 0.02380056 0.05549978 0.2249259 0.201739 0.1106935 -0.2417928 -0.1550611 -0.082979 0.1835669 0.07216885 -0.06987656 0.09267307 0.02417912 0.06097358 0.02304458 -0.04641364 -0.008546784 -0.1072602 -0.1466591 0.05043494 0.1083904 -0.02069074 -0.009412096 -0.07094057 -0.09776579 0.03806456 0.02602016 -0.09302957 -0.02804114 -0.01713747 -0.0550297 -0.05925127 -0.07564307 0.126422 0.1705544 0.01035012 -0.05036388 0.001403242 -0.05252716 -0.0305066 -0.05533238 -0.03558914 0.1366305 0.07500538 0.06006976 -0.152425 -0.2177696 -0.1033816 0.1125218 0.03201894 -0.1058426 -0.06173286 -0.08212648 0.0417212 0.06680533 0.08326453 0.06711648 -0.01920209 -0.05748939 0.04644541 0.1475546 0.0002042886 -0.02100711 0.04578596 -0.06468174 -0.03617982 -0.006952902 -0.0832485 0.01542146 -0.01270119 0.03716066 0.02034081 -0.07325274 0.07097235 0.04720853 -0.01837909 -0.002449901 0.03069624 -0.0824272 0.05659193 0.01067543 -0.007986642 0.1287717 0.1553735 0.002657804 -0.1155166 -0.216645 -0.07493911 -0.00250361 0.01591782 -0.08676133 -0.1183541 -0.04448557 -0.07311731 0.08173977 0.1847153 0.1057143 0.08245351 -0.1312599 0.03270026 0.1682597 0.006190998 -0.02734738 0.0675444 0.007864293 -0.00657519 -0.03868218 0.001365386 0.03131138 0.009262285 0.07019415 -0.06306132 -0.1076927 0.03492024 -0.03343926 -0.07958423 -0.03556812 0.02146797 -0.1176104 0.02747427 0.01601017 -0.1053809 0.1120127 0.1896242 -0.04920315 -0.06264707 -0.1988028 -0.1049571 -0.04860083 0.03009005 0.01650497 -0.03705987 -0.01071542 -0.06904282 0.08748303 0.1722187 0.1449612 0.1564702 -0.04636722 0.02297471 0.008096688 -0.02366234 -0.04492436 -0.001073073 0.01112714 -0.02638224 -0.05764715 -0.08449978 0.05882131 -0.05588323 0.05233169 -0.01739138 -0.0758158 0.07037464 -0.02934696 -0.05658359 0.002906733 0.06559433 -0.09302313 -0.03307487 -0.06252585 -0.08077013 0.06555448 0.1299504 0.02965952 0.1004611 -0.166285 -0.1178834 -0.0291352 0.1589565 0.1461693 -0.04129747 -0.0539523 -0.03563689 0.09739462 0.06142245 0.106141 0.1016713 -0.06195951 -0.03524065 -0.01684356 -0.07330479 -0.01762465 0.0422632 0.08998083 0.02154292 -0.08107053 -0.05933583 0.1375193 -0.1018331 -0.04976482 0.00448205 0.009827191 0.05731448 0.0235751 -0.06111236 5.130419e-05 0.1090228 0.01786672 0.04426027 -0.1014327 -0.0878376 0.02578267 0.06985304 0.074406 0.09533399 -0.1159926 -0.1278653 -0.04804213 0.06185652 0.1342738 -0.0452163 -0.122908 -0.08793319 0.05749791 0.0466153 0.04323579 0.04508597 -0.1002475 -0.05701929 -0.0260503 -0.07317691 0.01530865 0.0782862 0.05052545 0.01067057 -0.06079933 -0.015166 0.2078576 -0.06408712 -0.1385812 0.01297197 0.01864149 0.1561782 0.006683251 -0.1970349 -0.1070638 0.01726952 0.01485734 
  0.008322367 0.008451634 -0.04246749 -0.1333381 -0.2172812 -0.2203745 -0.1240152 0.02772235 0.07564694 0.08794731 -0.09901327 0.04934764 0.05546781 -0.09617397 -0.0816306 0.02789558 0.1467005 0.07175391 0.1577482 0.1016814 0.231202 0.2081245 0.1222281 -0.02468752 -0.001814285 -0.09810921 -0.1199268 -0.07749878 -0.01266267 -0.01840829 -0.01174994 0.08636232 0.09393376 -0.03609268 0.08373281 -0.1414987 -0.1262159 0.03695413 0.1453449 0.07764675 -0.04348875 0.04702444 -0.03555454 -0.2317908 -0.1521208 -0.1242609 -0.05157427 -0.01867821 0.0648277 -0.0257798 -0.02155871 0.1860077 0.1191851 -0.07879029 -0.02182954 0.05382748 0.1763758 0.08961776 0.02884703 -0.001211975 0.1194997 0.04893544 0.03240711 -0.02817281 0.05901004 0.05440421 -0.07662107 -0.06559056 8.491578e-05 0.01167202 -0.04187093 0.1449138 0.1204891 -0.09555901 -0.09030114 -0.1684453 -0.1232298 0.02367184 0.205219 0.01469729 -0.06138134 0.0962759 -0.09316999 -0.2206205 -0.1488821 -0.1866684 -0.1222368 -0.02559583 0.05585485 0.03015373 0.0003493873 0.1470745 0.04478598 -0.02363006 0.07358659 0.109036 0.137085 0.05084398 0.04973838 0.09852591 0.1479932 0.0784656 -0.004983263 -0.181704 -0.04820085 0.008917161 -0.09822565 -0.1560083 -0.008727848 -0.06365775 -0.1264526 0.0003103055 0.0644135 -0.07379962 0.03391311 -0.03569695 -0.04929245 0.01075279 0.07657842 0.04306104 -0.06960289 0.145248 -0.1178778 -0.3247236 -0.1645283 -0.04043009 -0.05868369 -0.04503988 0.04601049 0.05483994 0.05052593 0.08948133 0.06599033 0.07779925 0.2102857 0.1984975 0.2051383 0.1308334 0.1218526 0.1328366 0.113616 0.01533076 -0.09657858 -0.1508545 -0.07118284 -0.2168736 -0.1703166 -0.103856 -0.01004829 -0.08983678 -0.2115424 -0.07376478 0.03874081 -0.01795797 0.0008262806 0.03719601 0.05626145 -0.008561018 -0.04355467 0.02100103 -0.1983875 0.1980566 0.02860827 -0.2112994 -0.03755077 0.01768889 0.005558832 -0.03374838 0.09478245 0.04280692 0.1364623 0.1831295 0.06252181 0.07273385 0.1269475 0.1416314 0.09154854 0.03083389 0.05788384 0.01248152 -0.09950573 -0.03429489 -0.1440609 -0.08145764 -0.01325119 -0.2297672 -0.129837 0.03374876 0.0459506 0.02198679 -0.03702028 -0.1107674 0.01223488 -0.03380622 -0.1332302 0.03183656 0.02545437 0.09462781 0.04675711 0.01713671 -0.1241909 0.2781911 0.2190545 0.09515268 0.2063683 0.1812806 0.07538617 -0.03734789 0.04165357 0.06122358 0.04582717 0.1474322 -0.02818959 0.003444055 -0.04137004 -0.1631368 -0.2839074 -0.3207337 -0.1892934 -0.1580117 -0.2710504 -0.07689698 0.06721321 0.1561677 0.09696932 -0.01536753 0.1226719 0.2071293 0.1549813 0.128867 0.09179197 -0.02114466 0.01660198 -0.001496492 -0.1185336 -0.01846567 -0.03747069 -0.02061165 0.006266388 0.05494911 0.008262732 0.4007794 0.3843836 0.2869054 0.2704833 0.3955508 0.186941 -0.07723893 0.0784821 0.1201627 -0.03335235 0.05281848 -0.03246795 -0.1864599 -0.2149189 -0.4224875 -0.4685795 -0.5297755 -0.4631087 -0.3736365 -0.3887545 -0.06018863 0.2118748 0.180152 0.09082566 0.1441193 0.2938984 0.2748032 0.2062752 0.1132674 0.02522726 -0.0433141 -0.06732883 0.05099879 -0.004433542 -0.03977858 -0.1525241 -0.1879354 -0.1115342 -0.03602041 -0.001092046 0.1290434 0.2682632 0.2405253 0.121732 0.3002701 0.08358133 0.01548906 0.108759 0.08505513 0.03808745 0.0427811 -0.1028484 -0.1780431 -0.1042994 -0.193599 -0.3191467 -0.3775754 -0.2349686 -0.145394 -0.2407235 0.04464383 0.2193829 0.1606518 0.1382775 0.08838005 0.09875409 0.1599563 0.1348113 -0.03692695 -0.114543 0.084134 0.08798045 0.1580039 0.1256369 -0.0083369 -0.09543361 -0.1663553 -0.003130405 0.01851302 -0.05382996 0.0155518 0.02451708 0.04135077 -0.01787305 0.03227754 -0.1386013 -0.126512 -0.01656495 -0.08228984 -0.04055718 -0.001824119 -0.09424588 -0.03497776 0.0829972 0.01278222 0.05279881 0.04719944 0.04176148 -0.02653165 -0.1152863 0.04284574 0.02919353 0.04133107 -0.02765497 -0.01566573 -0.05553246 0.03273477 -0.04851505 -0.1780456 -0.2001496 0.01563746 0.08656524 0.05094495 0.1170655 0.08732099 -0.05630022 -0.1009911 0.01104565 0.01801561 -0.03380229 0.0362861 -0.06952474 -0.01782801 0.0127905 0.0700315 -0.1967886 -0.05923897 0.04799762 -0.07885924 0.08816101 0.03491808 -0.149785 0.05129014 0.07953527 0.05925862 0.08878325 0.1345808 0.01079231 -0.05800734 -0.06293361 0.01952053 -0.004756649 -0.01351277 -0.05018139 -0.02348463 -0.05714959 0.1115582 0.02255033 -0.1139152 -0.08536314 0.104406 0.01474915 -0.02905781 -0.01468539 -0.03006898 0.01073689 -0.08027411 0.00724589 0.1423331 -0.16174 -0.02057071 0.05107506 0.003244715 0.03055196 0.07269039 -0.1181013 0.0002098726 0.07524751 -0.03574562 0.1029036 -0.02599066 -0.1344141 0.1333826 0.008874631 0.02291077 0.02797657 0.09202418 -0.09846314 -0.153619 -0.08218316 0.09898777 0.0550557 -0.02708312 -0.09393489 -0.0229421 -0.1156096 0.07589847 0.1217934 -0.09679025 -0.1102985 0.07359818 0.1411521 -0.001453868 -0.07496057 -0.1209907 -0.08554813 -0.01039358 0.07802089 0.2327125 
  0.2147561 -0.08838703 -0.01400938 -0.3182572 -0.2341651 -0.1193912 -0.1468498 0.08044302 0.1532087 0.2352497 0.1701908 0.06370601 -0.1413916 -0.06818241 0.145993 0.240083 0.1623108 -0.003565428 -0.03516201 -0.1014864 -0.05740083 -0.07763615 -0.008477942 0.07139346 0.09824291 -0.04699556 -0.2580682 -0.0540936 0.006184679 -0.04912862 -0.05880589 -0.03905508 -0.1110797 -0.05071529 -0.04737027 0.005689968 -0.04226777 -0.1084981 -0.04642743 -0.09631398 0.02821929 0.07099496 -0.05988025 -0.1598548 -0.0556046 -0.2230019 -0.3182456 -0.1924949 -0.2098469 -0.07744395 0.08554232 -0.08600783 -0.0770504 0.001130135 0.06778292 0.0148608 -0.04131425 -0.2162634 -0.2087165 -0.1766897 -0.1512451 -0.08959846 -0.03713115 -0.06287906 -0.01543774 -0.00469316 -0.04642065 -0.07247274 -0.02192483 0.06258521 0.1105484 0.1778063 -0.04488532 0.06306842 0.03923995 0.05917305 0.2067675 0.229197 0.2453996 0.3307188 -0.1492376 0.1834932 -0.02728947 0.1270771 0.1331511 -0.06644351 -0.3016452 -0.234539 -0.2342656 -0.2253753 -0.0756596 -0.1514509 -0.1219451 0.03224938 0.03238931 0.01820296 -0.1428333 -0.1115496 -0.1115633 -0.05331169 -0.01400746 -0.1073195 0.05596206 -0.08578925 -0.01438604 0.0006588701 0.09075052 -0.03175755 -0.06477809 0.09399328 0.1775981 0.1262053 -0.04210129 0.04919239 -0.03587572 0.01327534 0.1028253 0.1146933 0.1819597 0.3221648 -0.1359399 0.1736171 0.0009911854 0.3730603 0.2913167 0.05769166 -0.04985302 -0.06516854 -0.1181275 -0.2108988 -0.1062417 -0.1145393 -0.1562878 -0.04843123 -0.003233322 0.02338522 -0.03081967 -0.005788304 0.1052411 0.1375134 0.207555 0.1336676 0.1105705 -0.05549845 -0.03269019 -0.1049132 0.1354156 0.105331 -0.0005230173 0.1449474 0.1456288 0.03960053 0.03405527 0.0718459 -0.01370997 0.01788603 -0.0305856 -0.1118065 -0.04152622 -0.06087906 -0.05729268 0.0590008 0.1811084 0.3035298 0.2274503 0.2925483 0.2032181 0.1333333 0.07503513 -0.0530783 -0.09143572 -0.06551885 -0.1280572 -0.006893243 0.06674048 0.003028348 -0.07435545 0.07005028 0.1938313 0.08687954 0.247404 0.2779455 0.1242066 -0.05313921 -0.07698359 -0.1359867 0.1156174 0.1524464 -0.0110573 0.1096389 -0.02735414 -0.02626053 0.02675719 0.109456 -0.03528852 0.08583011 -0.142111 -0.1114122 -0.1228942 -0.2392473 0.08083309 0.04181025 0.08595347 -0.01430253 0.0318629 0.1529129 0.2228014 0.1642176 0.1273849 0.01410888 -0.03745452 -0.03631086 -0.09936809 -0.04766602 -0.1728789 -0.1097246 -0.06549579 -0.023093 0.1938607 0.01908201 0.1311693 0.1669548 -0.01479785 -0.0945797 -0.1087357 -0.0654152 0.1310282 0.06210022 -0.1010715 -0.01435792 -0.110415 -0.09706309 0.02666844 0.1507301 0.05245711 0.04699761 -0.04563076 0.00743424 -0.0104658 -0.1436349 0.09281387 -0.07244299 0.02674061 -0.126285 -0.07529696 -0.007479247 0.1025392 0.0862857 0.03861611 0.02186577 0.0777332 0.09158066 0.08470727 0.05202359 -0.04498893 -0.03031904 0.01845087 0.03013387 0.05751567 0.01946141 -0.1188074 0.04617668 -0.05141518 -0.01474854 -0.007914262 0.04963649 0.0824389 0.03392059 -0.106365 -0.05565022 -0.05101926 -0.1004492 0.01249835 0.01902196 -0.02790616 0.004641663 0.03600819 0.07812419 -0.01844738 -0.2017 0.03835627 -0.05533395 -0.0314515 -0.1361234 -0.03787446 -0.01736361 0.1141285 0.09884959 0.05199657 0.08079007 0.08116884 0.11427 0.03876597 0.02392552 0.001189184 -0.01238177 0.03126203 0.06687259 0.1215695 0.1495837 -0.1094645 -0.03342419 -0.01986342 0.003530575 -0.01582276 0.0862859 0.07854616 0.06613141 -0.01352875 -0.01011165 -0.04367103 -0.06203356 0.05182 0.007710461 -0.0669174 -0.03552307 -0.05814975 -0.02140945 -0.1259229 -0.2227706 -0.01433956 -0.1104775 -0.006792723 -0.06424599 -0.01340493 -0.0901683 0.08783341 -0.06495961 -0.01639276 0.07758258 0.09607567 0.1064014 -0.01060817 -0.04224874 -0.03547451 -0.005350457 0.04376048 0.04929133 0.1106661 0.1803747 -0.1191635 -0.03549315 0.01607587 0.009811109 0.01097478 -0.0308164 -0.009893886 0.03618541 -0.05820234 -0.0340481 0.04691529 -0.03118019 -0.008089338 -0.09050885 -0.03911888 0.03168564 -0.008433435 0.02542163 -0.1208006 -0.05148062 0.0278234 -0.04305455 -0.0476515 -0.0503196 -0.04714965 -0.1114541 0.0596254 -0.1383289 -0.002207396 0.1383668 0.159665 0.1061882 0.00159271 -0.07081579 -0.0485543 -0.03123803 -0.03627161 -0.005183864 0.04431076 0.03784132 -0.03788011 -0.04850857 -0.01576666 0.04102336 0.04147493 0.05856146 -0.1249428 -0.01502489 -0.05401081 -0.03223951 0.1044276 0.05024936 -0.01138766 -0.1130819 -0.06014016 -0.01344411 0.03727557 0.06812594 -0.01867007 0.0999443 0.03306332 -0.0550665 -0.008351783 0.03706469 0.02685511 0.05113641 0.1075811 -0.1735584 0.02849286 0.1378148 0.1238074 0.07410204 0.04237865 -0.02098634 -0.06282751 -0.09448988 -0.09745838 -0.05036994 -0.003782396 -0.03716199 0.07617807 -0.03811491 0.03693326 0.08619807 0.1227525 0.09024394 -0.1546983 -0.0274011 -0.0799678 -0.1089204 0.1214646 0.09343625 -0.03746728 0.04170275 0.03236877 0.01948516 -0.02662098 0.001029405 -0.008779941 -0.0119452 
  -0.03232645 0.05458952 0.0657683 -0.09229066 0.03180303 0.08556525 0.01529777 0.009813949 0.002297301 -0.06604259 -0.08120058 0.08378496 0.08718035 0.0009804656 0.155999 0.1492991 0.2078932 0.09658347 0.01183082 0.04741218 -0.209491 -0.1101642 -0.2830087 -0.2376362 -0.06745295 0.03709383 0.0836133 0.05309049 0.03488489 -0.0705151 -0.01260617 0.00723072 0.09729546 0.06831362 -0.03004212 -0.1708491 -0.136218 -0.0872114 -0.1711816 0.06015257 -0.1030627 -0.04927038 -0.06016807 -0.08766401 -0.05079247 -0.0174669 -0.00219904 0.0111992 -0.06110139 -0.0402825 -0.03465026 0.04218692 0.01900872 -0.02540338 0.05350468 0.05340606 0.03917879 -0.1516695 -0.03371115 0.05585578 -0.04396509 0.1513749 -0.002608284 -0.0594813 0.03633284 0.01504539 0.04133995 0.05985414 -0.03080215 -0.08691521 -0.061244 -0.04369301 -0.04627127 -0.00780552 -0.005856984 -0.02339263 0.03490725 0.04969082 -0.1448226 0.07607321 -0.01658371 0.03390374 -0.06646214 -0.1229847 -0.08862156 0.05423224 0.02402737 0.04034314 -0.04619124 -0.01686222 -0.007986818 -0.008906247 0.02585498 0.006224367 0.0478209 0.04848566 -0.02545952 -0.05899911 0.03884269 0.08876453 0.007959536 0.1006188 0.08875868 -0.02166224 0.1813595 0.09299495 0.004793832 0.03578678 -0.0944405 -0.1414122 0.02776152 0.04075676 0.05201172 0.03310297 0.006546502 0.02004606 -0.02555006 0.04770121 -0.05894637 0.08590738 -0.1077006 0.07297324 0.009947913 0.01897011 -0.07095551 0.1424364 0.08557229 0.03369023 -0.09759466 0.004344765 0.0131053 -0.09316064 0.04593756 0.02017402 0.02797479 -0.07392966 -0.1889325 -0.03215205 0.03931349 0.08883601 0.04393569 0.1026045 0.1138426 0.05557617 0.1665184 0.1490209 0.03996196 0.07408356 -0.1305833 -0.2672906 -0.00446533 -0.02331338 0.05001791 0.05143248 -0.04232511 0.0129579 -0.05478852 -0.02657144 -0.0340635 0.02691657 -0.1408664 0.1061761 0.03869644 -0.001901962 0.01536264 0.1806331 0.1267309 0.009027167 -0.09307414 0.03022186 -0.008102347 -0.09782937 -0.04748017 -0.02124925 -0.09900129 -0.2451234 -0.4212013 -0.2499448 0.0008713528 0.148611 0.102159 0.2051591 0.1552072 0.01149761 0.1232454 0.1917311 0.1966103 0.2156726 -0.05104798 -0.1951297 0.03856958 -0.04313539 0.05861101 0.05206127 -0.08554601 0.05627292 -0.0721126 -0.08342512 -0.03561786 0.0516399 -0.005846465 0.1420577 0.05424215 0.07827444 0.08243287 0.2049011 0.1319554 -0.01459156 -0.03507718 -0.06305862 -0.05089597 -0.08003626 -0.09147521 -0.08296073 -0.1873719 -0.2606464 -0.3923422 -0.3593541 -0.05033583 0.1378207 0.1068728 0.3246752 0.2261701 0.1324617 0.1184611 0.1912762 0.1775081 0.2007672 0.01119347 -0.08364619 0.1927742 0.06904946 0.02674287 0.0293209 -0.1035586 -0.08506247 -0.1938969 -0.1907004 -0.1558386 -0.01373823 0.02501469 0.1811753 0.05465901 0.006879026 0.05882392 0.1612325 0.1619666 -0.05196013 -0.103919 -0.07246044 -0.1145316 -0.06873886 -0.1234904 -0.05557497 -0.1148411 -0.2616595 -0.3022716 -0.3005695 -0.1096603 0.1567781 0.1567826 0.2831972 0.1125147 0.02676353 0.01302362 0.08352132 0.07750664 0.09674283 -0.0198787 -0.09668071 0.1263143 0.06409124 0.04838092 0.0953805 -0.09990967 -0.1255677 -0.161873 -0.06710356 -0.07651459 0.08584736 -0.05613552 0.2046709 -0.007267034 -0.1312844 -0.00244604 0.1366717 0.077822 -0.09408457 -0.02696474 -0.05610501 -0.1959816 -0.08191837 -0.1220855 -0.02018207 -0.04841055 -0.07085709 -0.09094438 -0.1369325 0.03275965 0.2780951 0.2005325 0.1248384 -0.02836272 -0.1730381 -0.113715 0.0259167 -0.0103354 -0.02763092 -0.06804428 -0.05454949 0.07767359 0.07336964 0.07833746 0.09640948 0.01848454 -0.05379881 0.01365146 -0.006086964 -0.07398306 0.04571835 -0.1908683 0.08368666 -0.1329104 -0.3264083 -0.1130938 0.07515445 0.04039292 -0.03859714 -0.02449419 -0.0144726 -0.08511367 -0.09841729 -0.1650771 0.02837493 -0.02846645 0.05163105 0.07206602 0.02263555 0.1396028 0.3276254 0.1339832 0.1560564 0.002045101 -0.1882178 -0.1733058 -0.03579494 -0.02090338 0.02506433 0.01211837 0.0351432 0.0844367 0.06215708 0.08637097 0.0493811 0.00951506 0.02204107 0.06749095 0.00531802 -0.05037997 0.01360944 -0.2209853 0.1346298 -0.06548479 -0.2435088 -0.08052606 0.07879744 0.05469332 -0.004019729 0.07069275 -0.04516311 0.00914552 0.03663838 -0.004670961 0.06753238 -0.04382168 0.04651677 0.08105379 0.001891907 0.1045409 0.1992129 -0.01473549 -0.09676232 -0.1312965 -0.2876031 -0.1762369 -0.01871597 0.05109765 0.08276888 0.04388357 -0.01543632 0.02647348 -0.02613445 0.07786898 -0.004941145 -0.01502869 0.06059046 0.1015287 0.06653179 -0.005069711 0.1108303 -0.3305243 0.1528649 -0.00310453 -0.1531285 -0.0832314 0.08135562 0.01338982 -0.0638539 -0.04192569 -0.06516092 -0.00835685 0.04769531 0.1213807 0.1859477 0.05032856 0.03455558 0.01166327 -0.2511207 -0.1032287 -0.0387144 -0.1754591 -0.1257429 -0.03921365 -0.1892339 -0.1220628 0.03174366 0.08841893 0.1466032 -0.0164247 -0.04275027 0.02289587 -0.01221805 -0.006734544 -0.03950346 -0.07589465 0.03784967 0.04748962 0.05129384 0.000520772 0.07039876 
  0.04095272 0.009625665 0.01141261 0.08072095 0.2137167 0.08415429 -0.03126859 -0.07749298 -0.01141955 -0.1053204 -0.04173183 0.02319889 0.1313462 0.07538167 -0.003787035 0.002701874 0.03514063 -0.04147053 -0.01855924 -0.05176708 -0.08497503 0.0442742 -0.04524325 0.03193717 -0.03993098 -0.105135 0.0182662 -0.0938002 -0.06066394 0.1280994 0.03052302 0.01014327 0.07319999 0.03944026 0.09174595 0.1688412 0.02232565 -0.0592599 -0.06373985 -0.04342523 0.01999813 -0.1385391 0.04942365 -0.01584754 -0.01944965 0.1057085 -0.03346537 -0.1635521 -0.195704 -0.2003792 -0.200789 -0.2105897 -0.1570759 -0.2401672 -0.2434766 -0.1636748 -0.1685757 -0.2327047 -0.2705783 -0.270044 -0.2427998 0.04682981 -0.05627269 -0.06774981 -0.1435959 -0.133269 -0.1018287 -0.1553145 -0.1785371 -0.04611738 -0.2050146 -0.1355719 0.02748345 0.08544843 0.002999061 0.04261861 0.05521355 0.04858385 -0.002513487 0.01396301 0.08071569 -0.1809366 0.07923717 -0.1590034 -0.1565065 0.1031152 0.107917 0.2117632 0.1535179 0.3237367 0.2972793 0.1661731 0.03743073 -0.05708944 -0.1198684 -0.2321068 -0.159831 -0.1476588 -0.0083555 -0.02731972 0.02897058 0.06803094 0.0366703 -0.01343054 0.06533765 0.1960031 0.162117 0.05252431 -0.1492071 0.05572134 0.000729343 -0.001820036 0.1500988 0.05600158 -0.07011836 -0.09715577 -0.1608729 -0.07804985 -0.08330065 -0.02690445 -0.02054381 -0.1491883 0.09492824 -0.1192563 -0.1723227 -0.02259292 0.02333057 0.2955372 0.3699425 0.407184 0.3646247 0.270018 0.2114428 0.269375 0.1883442 0.1023482 0.1587973 0.1102476 0.1519694 0.1955907 0.3017726 0.1293421 0.1633722 0.1219574 0.1577026 0.2390054 0.2583859 0.1777987 0.137037 0.2371663 0.1297554 0.1656035 0.2362528 0.06829404 -0.07536346 -0.09046013 -0.1116208 -0.009485026 0.1200947 0.225703 0.02212066 0.03809153 0.09841196 0.0327601 -0.09201699 -0.213834 -0.2046349 -0.08622574 -0.06472044 -0.07365166 -0.1413043 -0.1164565 -0.06772546 -0.02370184 0.0972706 0.09136403 0.1937515 0.05786457 -0.007941345 -0.03180736 -0.006604163 -0.03308552 -0.004077782 -0.01396132 -0.08293009 -0.1447438 -0.08019119 -0.1046787 0.07385268 -0.04019877 -0.1692621 -0.1063228 0.004897486 -0.1231493 -0.1435815 -0.08821844 -0.0623869 -0.006554012 0.05032838 0.0749993 0.009208444 0.04349831 0.0763352 0.1018689 0.04023826 -0.1712355 -0.1981138 -0.2455723 -0.2400465 -0.2416318 -0.2571835 -0.151645 -0.08005564 -0.03403579 0.0460218 0.1631469 0.05763127 -0.1673466 -0.1566082 -0.1725773 -0.03359445 -0.02789408 0.03813556 0.1007049 0.09436002 -0.1048618 -0.1430532 -0.2209624 -0.01690944 -0.09553062 -0.1741215 -0.1478091 -0.1915438 -0.09144707 -0.1074556 -0.02144032 -0.02734682 -0.02418656 -0.0113983 -0.06611825 0.03888514 -0.002572631 -0.01735147 0.06705884 0.07632215 0.128158 0.01886123 -0.01164678 -0.08051229 -0.09507268 0.03386627 0.09325439 -0.01329102 0.02354871 0.02842708 0.0979141 -0.0596416 -0.108012 0.04334639 0.06728847 0.002444923 -0.02810534 -0.07464311 0.0236241 0.08035836 0.07950912 -0.02059087 -0.05502119 0.1124087 0.0264303 -0.01135415 0.02185692 -0.02220749 0.01246054 0.1367726 0.1142523 0.0308773 0.0726703 0.07814535 0.007312947 -0.01401671 0.006876852 -0.05991175 0.05660406 0.03799119 0.2123391 0.1144746 0.08128388 -9.602468e-05 -0.04116678 0.1414099 -0.01313131 -0.03937372 0.03962533 0.07173247 -0.04250303 -0.03593257 0.0375194 0.06552697 0.0663209 0.004288975 -0.05187918 -0.19387 -0.004940086 -0.04127678 -0.04374306 0.01092105 0.1201959 0.153722 0.05616791 0.01665563 0.002082143 0.02012645 0.01546282 0.05754717 0.02712578 -0.05755267 -0.09363151 -0.07644022 -0.1076473 -0.03055703 0.01028488 -0.09372409 -0.0016357 0.00318613 0.1053124 -0.05361596 0.06700119 0.07295309 0.04111904 -0.03226952 -0.09598736 0.0478542 0.1137466 0.035282 0.001840068 0.002840016 0.05610891 0.0438254 -0.008929582 0.04884217 0.05598046 -0.09143843 -0.04707384 -0.09246419 -0.08803233 0.01102754 0.04796839 -0.008396535 0.0345741 0.005730904 0.0600804 0.02676044 -0.0003449561 0.05213916 0.03086182 0.02423818 -0.0007108835 -0.1238598 -0.06818406 -0.01258884 0.1787211 0.0261308 -0.04595358 0.009702401 0.07591597 -0.1454711 -0.1001293 0.04702883 0.1087423 0.03684685 -0.01629911 -0.06138584 0.00291171 -0.0006287539 0.02776786 -0.03885419 -0.00656051 0.001425991 -0.08387057 -0.06518025 0.04364096 -0.05954196 -0.07343669 -0.02627823 -0.006552245 -0.01697387 -0.001044656 -0.01716141 0.05256278 -0.01216595 0.006581525 -0.02129138 -0.08625007 0.01037763 0.1149382 0.03972747 0.04094764 -0.01177959 -0.01847685 -0.05424597 0.2117217 0.1314459 -0.006072047 0.0105101 0.0612834 -0.08724271 -0.02162728 -0.05536132 0.08818839 0.06997437 0.05829339 -0.1057211 -0.1027335 -0.02080651 0.05302703 0.07532931 0.06318685 0.02246628 -0.06064061 -0.1032876 -0.1302824 -0.1113785 -0.005705413 0.1033791 -0.02294696 -0.022881 -0.06278089 -0.08782227 0.1089352 0.05723442 0.006535918 -0.02096923 -0.07727037 -0.003819727 0.0720127 -0.08921149 0.006585693 0.09409907 0.1042294 
  -0.03946521 0.02276019 0.02431811 0.1130045 0.08186717 -0.02757274 0.002051333 -0.05598761 -0.0733365 -0.07071424 -0.1029885 -0.06820292 0.01956795 0.00894735 -0.1448284 -0.04289388 -0.08942815 -0.112677 -0.02266663 -0.07728972 -0.1067401 -0.0122175 -0.08610027 -0.06125696 0.02566584 0.07694411 0.1735471 0.03429483 -0.01862114 0.09156495 0.1535943 0.1036502 0.01586696 -0.02062109 -0.01292527 0.02857216 0.1597043 0.03184738 0.04030881 0.2553429 -0.1706356 0.006805764 0.01745101 0.06043829 -0.02332183 -0.08976747 0.03019182 0.02345002 -0.06665137 -0.150078 -0.09490918 -0.001614129 0.1319693 0.1112861 0.007633527 -0.02551032 0.03842357 -0.07096507 0.006495191 -0.02737428 0.06283011 0.04502558 -0.04937424 -0.03934646 0.01478402 0.05092427 0.05497547 -0.03916948 -0.05845496 -0.01029673 0.07594502 0.08331854 0.02117284 0.01870701 -0.07382648 -0.08491831 0.02413836 0.02014188 0.09128641 0.1287007 -0.05491967 0.03848011 0.04015131 0.04115118 -0.07277103 -0.1046102 0.01424962 -0.03383961 -0.1027407 -0.2025339 -0.123532 -0.05681743 0.09902494 -0.01587729 -0.03007756 -0.02065107 -0.06656878 0.03106734 0.02275203 -0.04678655 0.1486732 0.1739643 -0.01405137 0.04193202 -0.01596713 0.1182458 0.06899643 -0.1066966 -0.08256204 -0.07071 0.06383716 0.07596568 0.04931465 0.01230149 -0.008254869 -0.05534707 -0.006859889 -0.01109871 0.06709711 0.08097556 0.04724526 0.126804 0.1279774 -0.04968702 -0.08386496 -0.05141322 -0.05407697 -0.0244415 -0.1222897 -0.20928 -0.08817106 -0.01338119 0.09784787 0.09716035 0.07011053 0.005422828 -0.08428177 -0.0253132 0.01758986 0.009509877 0.1812956 0.1964261 0.0488193 0.0143497 0.0366463 0.1203774 0.05232437 -0.1447502 -0.1066783 -0.1249681 0.03643715 0.03176261 -0.02886867 0.01895279 -0.04877349 -0.1233895 -0.01141548 -0.04333067 0.01294576 -0.005703978 0.07042488 0.1282287 0.1072628 -0.1922106 -0.1698106 -0.09740642 -0.139505 -0.05040332 -0.09229787 -0.213579 -0.0587966 0.0262923 0.1168801 0.09321814 0.09960173 0.1116494 0.1368933 0.09616182 0.1243069 0.2215817 0.2103778 0.1453424 -0.02519375 -0.09661262 -0.06965823 0.04873833 -0.0958461 -0.1827263 -0.1538808 -0.07829565 -0.01150791 -0.02103792 -0.0525951 -0.05399024 -0.1160369 -0.1289345 -0.07125048 -0.04086151 -0.05883069 0.02010749 -0.1308617 -0.0281616 0.008406578 -0.1813341 -0.165325 -0.1245834 -0.1642344 0.03387137 0.02664391 -0.069521 0.08723949 0.1218745 0.05488709 0.1025081 0.2540573 0.3362781 0.2891802 0.2228652 0.1964957 0.1531606 0.05749607 -0.0292642 -0.1148315 -0.1808667 -0.0754462 -0.05440339 -0.1715266 -0.1579668 -0.0651827 0.005054606 0.02425705 -0.02380879 -0.01785142 -0.05664929 -0.05607595 0.04807128 0.05142755 -0.02573433 0.02017441 0.2326083 -0.16418 0.09571982 0.149705 -0.1355065 -0.1513465 -0.008625659 0.026737 0.08811431 0.131429 0.002364019 0.1162891 0.2020106 0.113407 0.2590986 0.3374197 0.3423799 0.2181354 -0.02779196 -0.03776724 -0.08955515 -0.1550701 -0.2356032 -0.2613522 -0.2408643 -0.1520028 -0.1110886 -0.1893744 -0.2053707 -0.004490278 0.002894983 -0.04465625 -0.003025435 0.01942642 -0.05901153 -0.09153949 0.04273757 -0.04221332 -0.09142289 -0.08279259 0.09115067 0.1113408 0.1028051 0.2042396 -0.0739075 0.01173244 0.2830574 0.2983596 0.1249214 0.1164234 0.01225812 0.02524072 0.1449902 0.03525312 0.02819071 0.1299599 0.07438875 -0.1311723 -0.2798479 -0.1968539 -0.1495946 -0.202535 -0.2518874 -0.2239977 -0.1052445 0.06870465 0.01325678 -0.003827874 -0.004204975 0.07490721 0.03776035 0.04170734 0.1352733 0.1742501 0.08771674 -0.06382219 -0.01600591 -0.07962529 -0.1809027 -0.09864037 0.01792042 0.1806331 0.1099669 0.1372725 -0.04656095 -0.0117641 0.074748 0.1953577 0.09849808 0.134435 0.05772338 0.0008049726 -0.01084269 -0.1450385 -0.06938369 0.03016068 -0.07631605 -0.1661627 -0.2581158 -0.115183 -0.0193924 -0.09163499 -0.1231479 -0.02875262 0.03747211 0.1630722 0.1092222 -0.03479216 0.1214363 0.07552444 -0.08455003 -0.031314 0.002246105 0.1767959 0.1076393 0.02141241 -0.03719512 -0.1437282 -0.1851498 -0.1009994 -0.01185362 0.1797282 0.07449614 0.0742525 -0.02333924 -0.03235158 -0.001839039 0.02038353 0.08118483 0.139507 0.0624503 0.0233283 -0.1313025 -0.2263069 -0.08148349 0.04441431 0.002769906 -0.1411795 -0.0702159 -0.02826916 -0.008763716 -0.0393354 -0.05485135 0.01387808 -0.0150566 0.08189539 0.02911336 -0.03979653 0.0863592 0.06102512 -0.1343037 -0.1276157 -0.07951658 0.1123855 0.1997364 0.08132904 -0.05734919 -0.08194169 -0.04308705 0.008199567 -0.001594346 0.006321541 0.003174825 -0.08447557 -0.1525631 -0.08308233 -0.04484603 -0.08314171 0.08291917 0.07508773 0.04641257 0.07347883 -0.1000057 -0.220506 -0.008670262 0.1239151 -0.001367433 -0.00191839 0.0326771 0.0252547 0.09991144 0.02721649 -0.001638283 0.0009133202 -0.03053388 0.09257156 0.1249288 -0.06521343 -0.07205764 -0.00330975 -0.09033786 -0.05032993 0.005265527 0.06529488 0.03516679 0.03185531 -0.07041331 -0.01120345 0.06185622 -0.00403606 0.02901618 
  -0.191694 -0.02451115 -0.03765836 -0.06458489 0.02533687 0.01374771 -0.1108759 -0.2023814 -0.1147311 0.02655455 0.1801865 0.08451241 0.008824717 0.02181339 -0.06765932 -0.06271042 0.1160575 0.1309114 0.08679311 -0.0259606 -0.113902 0.00701808 -0.04094542 -0.08523756 0.0057777 -0.04577122 0.0475781 0.1420542 0.1399405 0.1346453 0.05120012 -0.06389583 0.1095606 0.1423233 -0.006726675 -0.00602798 -0.05123053 -0.07577637 0.120809 0.06342062 -0.1719392 -0.004485018 0.06260996 -0.01630812 -0.02780988 0.02123123 -0.05141372 -0.0868642 -0.09093278 -0.03893607 0.1297998 0.06443026 -0.06519409 -0.04611686 -0.08683636 -0.01284275 0.04097483 0.06193331 0.08402678 -0.09516335 -0.06213446 0.03337633 -0.09917524 -0.1113949 -0.02175944 -0.03838711 -0.03315882 0.08355 0.121086 0.05073027 -0.03421992 -0.1196103 0.1231773 0.1301606 -0.02000755 0.01251568 -0.0378123 -0.05878007 0.1348827 0.1220822 -0.2055373 -0.06600204 0.1134669 -0.002106397 -0.06450576 -0.06935278 -0.05270566 -0.08139922 -0.1187729 -0.08107103 0.09228703 0.1098936 -0.1108913 -0.05692127 -0.04771075 -0.01778454 0.02061194 0.04633072 0.103914 -0.06279816 0.02209042 0.02652792 -0.07761134 -0.03053036 0.01422472 0.0218892 -0.032113 0.08425502 0.07310819 0.03615679 -0.01247048 -0.05392769 0.03689338 0.08251457 -0.005598053 0.03066546 -0.05337761 -0.01734411 0.1641658 0.1520064 -0.1846712 -0.103344 0.07020169 -0.05806722 -0.03209671 -0.03496014 -0.05899982 -0.120963 -0.2005952 -0.06674593 0.1207756 0.1280083 -0.01912385 -0.07467544 -0.01963514 0.06472075 0.05641643 0.05652206 0.1356801 -0.08033939 0.01626819 -0.03026987 -0.04936837 -0.02482473 0.007022388 -0.01818689 -0.09010035 0.008163428 0.02124482 0.05599473 -0.01040731 -0.09658982 -0.01478561 0.0883185 0.08568502 0.05309797 -0.03317179 0.03604014 0.1696513 0.1413962 -0.0750029 -0.05321383 0.01544508 -0.06249917 -0.05398633 -0.01208203 -0.1150891 -0.1533913 -0.1706389 -0.04095649 0.1013696 0.1394835 -0.0006526122 -0.03618611 0.03590842 0.1161011 0.004850468 -0.06308862 0.005382897 -0.01544196 0.05375648 0.05139809 -0.05672105 -0.106819 -0.05607798 -0.1819063 -0.1133583 0.02346383 -0.00712856 0.01542083 0.006185986 -0.01720286 0.03767103 0.1362351 0.1153714 0.1089219 0.02231531 -0.005246816 0.1156044 0.1627233 -0.06484143 0.004059858 0.0299673 -0.02702667 0.01674523 0.01485333 -0.07100409 -0.07667456 -0.1568778 -0.03004972 0.1274483 0.1809026 0.06974836 0.01149707 0.09192973 0.01206419 0.03598401 0.01335046 0.06970728 -0.0253894 -0.1015295 0.03042923 -0.1023321 -0.1881142 -0.08239035 -0.2312778 -0.1158167 -0.006503572 -0.008480813 0.1347834 0.1224489 0.05156724 0.06288105 0.1358973 0.1150464 0.1995966 0.06337282 -0.01478419 0.06570698 0.1477249 -0.02253458 -5.943687e-06 0.01967931 0.04003797 0.04903651 -0.002813304 0.01724976 -0.05516789 -0.1993712 -0.05149427 0.098788 0.1249579 -0.01943178 -0.0124675 -0.005008148 -0.04497422 -0.02587952 0.01119635 -0.04488535 -0.06910864 -0.07308239 0.09765204 -0.1066434 -0.203897 -0.1014216 -0.1448705 -0.1385211 -0.04258512 0.02317564 0.1213489 0.1350518 0.09462418 0.0683699 0.1475877 0.1221166 0.1640795 0.02444064 -0.05634123 0.07590986 0.2005506 -0.06564787 -0.06368914 -0.02688586 -0.06072676 0.01493388 0.004055526 -0.001118198 -0.1259747 -0.1530251 -0.04001911 0.1423137 0.07639831 -0.1035624 0.006355511 -0.002012002 -0.07937121 -0.001268821 0.01892577 -0.05771112 -0.02144212 0.003823601 0.07454602 -0.107698 -0.1159292 -0.06071357 -0.04136997 -0.07847638 -0.03799541 0.02480843 0.07084334 0.11065 0.08411094 0.05514126 0.03449987 0.01063461 0.0670533 0.02513941 -0.05118724 -0.0001165909 0.03921708 0.05010258 -0.07013359 0.006938457 0.04203831 0.07311844 -0.08462879 0.01594553 -0.0422505 -0.06891536 0.01432562 0.1527011 0.04175779 -0.1506985 0.06571535 -0.01236675 -0.1231171 -0.1226398 -0.03282403 -0.01624823 -0.01978511 -0.03656537 0.08202052 -0.1082781 -0.08651149 -0.1100587 -0.1123445 -0.05872574 -0.01786639 0.05310053 0.1581751 0.1435084 0.07221387 0.02348983 0.06777143 0.01726824 0.0462948 0.1072731 0.04267151 0.03294227 0.04355392 0.06230461 -0.1103559 0.03532814 -0.02216603 -0.0006369183 0.004005183 0.09140014 -0.0963077 -0.06220403 0.03948309 0.1947422 0.02848754 -0.175324 0.06451108 0.0428797 -0.09935243 -0.1295402 -0.07780086 0.04828171 0.03269723 -0.01998533 0.003483061 -0.1240873 -0.06878822 -0.05764632 -0.04231754 0.03595557 0.09044904 0.09068737 0.1214087 0.08081316 0.02907115 0.1079103 0.07211689 0.01061316 -0.06164419 0.04942818 -0.04484247 -0.1203316 -0.1078551 0.06500753 -0.1315739 -0.003076702 -0.03250114 0.01381804 -0.0323613 -0.0220695 -0.132071 -0.09927117 0.04177439 0.1238641 0.1189017 -0.09245529 0.02621892 0.05300919 -0.001022102 -0.07889024 -0.02277738 0.07146891 0.04323516 -0.05154322 -0.1021074 -0.1049843 -0.07122736 -0.02249618 -0.008890084 0.07405373 0.05233568 0.02708324 0.1111988 0.03700228 0.004752859 0.1738055 0.1216798 0.09890082 0.08266672 0.05945917 -0.09742956 -0.1204707 -0.101429 
